tree
version=v4
num_class=1
num_tree_per_iteration=1
label_index=0
max_feature_idx=33
objective=binary sigmoid:1
feature_names=Marital_status Application_mode Application_order Course Daytime/evening_attendance Previous_qualification Nacionality Mother's_qualification Father's_qualification Mother's_occupation Father's_occupation Displaced Educational_special_needs Debtor Tuition_fees_up_to_date Gender Scholarship_holder Age_at_enrollment International Curricular_units_1st_sem_(credited) Curricular_units_1st_sem_(enrolled) Curricular_units_1st_sem_(evaluations) Curricular_units_1st_sem_(approved) Curricular_units_1st_sem_(grade) Curricular_units_1st_sem_(without_evaluations) Curricular_units_2nd_sem_(credited) Curricular_units_2nd_sem_(enrolled) Curricular_units_2nd_sem_(evaluations) Curricular_units_2nd_sem_(approved) Curricular_units_2nd_sem_(grade) Curricular_units_2nd_sem_(without_evaluations) Unemployment_rate Inflation_rate GDP
feature_infos=[1:6] [1:17] [1:6] [1:17] [0:1] [1:17] none [1:27] [1:33] [1:31] [1:44] [0:1] none [0:1] [0:1] [0:1] [0:1] [18:70] none [0:19] [0:23] [0:45] [0:21] [0:18.875] none [0:18] [0:23] [0:26] [0:20] [0:18.571428571428573] none [7.5999999999999996:16.199999999999999] [-0.80000000000000004:3.7000000000000002] [-4.0599999999999996:3.5099999999999998]
tree_sizes=952 952 954 954 953 959 964 964 967 965 961 963 961 964 970 969 962 960 964 962 970 962 960 975 964 970 961 972 968 971 973 971 976 962 973 971 967 971 967 970 967 972 967 979 971 972 976 973 973 973 964 970 972 968 978 973 965 866 967 969 963 970 972 975 967 957 975 968 979 971 968 972 969 978 975 976 972 962 975

Tree=0
num_leaves=8
num_cat=0
split_feature=28 29 1 28 22 7 29
split_gain=561.387 32.3201 15.4447 8.47057 1.4726 1.16482 1.08971
threshold=3.5000000000000004 11.689583333333335 5.0000000000000009 5.5000000000000009 1.0000000180025095e-35 4.5000000000000009 13.516666666666667
decision_type=2 2 2 2 2 2 2
left_child=2 -2 -1 -3 -4 -5 -7
right_child=1 3 4 5 -6 6 -8
leaf_value=0.27324135503839786 0.43277676124851616 0.5051704404164914 0.17051779512283891 0.54725552559892354 0.20228743367183319 0.55822745159178433 0.58501185916259124
leaf_weight=31.112627983093262 30.873300075531006 37.57448148727417 29.915988445281982 39.728432655334473 28.480020999908447 37.335153579711914 25.608086109161377
leaf_count=130 129 157 125 166 119 156 107
internal_value=0.419258 0.525404 0.216332 0.545795 0.186012 0.560662 0.569125
internal_weight=0 171.119 89.5086 140.246 58.396 102.672 62.9432
internal_count=1089 715 374 586 244 429 263
is_linear=0
shrinkage=1


Tree=1
num_leaves=8
num_cat=0
split_feature=28 29 3 28 22 28 8
split_gain=448.781 27.8669 13.2812 7.54104 2.88347 1.15952 0.833106
threshold=3.5000000000000004 11.689583333333335 6.5000000000000009 5.5000000000000009 1.5000000000000002 7.5000000000000009 25.000000000000004
decision_type=2 2 2 2 2 2 2
left_child=2 -2 -1 -3 -4 6 -5
right_child=1 3 4 5 -6 -7 -8
leaf_value=-0.12400420821271368 0.012202962838518707 0.078926187384955993 -0.2224024878262664 0.12886635586474277 -0.1782474803034397 0.11484870925044943 0.15065579475433946
leaf_weight=31.583284348249435 30.785845398902893 36.848659440875053 35.373265355825424 38.672473847866058 25.415958970785141 28.445289343595505 32.122400194406509
leaf_count=128 129 157 143 167 103 123 139
internal_value=0 0.098121 -0.17661 0.117557 -0.203941 0.131901 0.138753
internal_weight=0 166.875 92.3725 136.089 60.7892 99.2402 70.7949
internal_count=1089 715 374 586 246 429 306
is_linear=0
shrinkage=0.1


Tree=2
num_leaves=8
num_cat=0
split_feature=28 29 21 1 28 2 31
split_gain=365.014 25.1733 18.1246 11.3171 2.34744 1.46344 1.27411
threshold=3.5000000000000004 12.261363636363638 8.5000000000000018 5.0000000000000009 5.5000000000000009 2.5000000000000004 11.750000000000002
decision_type=2 2 2 2 2 2 2
left_child=3 2 -2 -1 -3 -6 -5
right_child=1 4 -4 6 5 -7 -8
leaf_value=-0.10938729930467726 0.092036002551997009 0.093044112678429713 -0.022280731594196766 -0.19710477552306721 0.1362005197417174 0.10628351659314167 -0.16819058278936583
leaf_weight=32.395104452967644 28.529474303126335 25.511496841907501 26.989646151661873 30.233040362596512 58.392478868365288 22.709880739450455 30.730873137712479
leaf_count=130 123 111 116 121 263 102 123
internal_value=0 0.0910663 0.0364629 -0.15715 0.119501 0.127823 -0.18253
internal_weight=0 162.133 55.5191 93.359 106.614 81.1024 60.9639
internal_count=1089 715 239 374 476 365 244
is_linear=0
shrinkage=0.1


Tree=3
num_leaves=8
num_cat=0
split_feature=28 28 3 21 22 28 32
split_gain=301.525 38.0214 15.1146 10.8652 4.85754 1.30804 0.575813
threshold=4.5000000000000009 2.5000000000000004 14.500000000000002 2.5000000000000004 5.5000000000000009 7.5000000000000009 1.0000000000000002
decision_type=2 2 2 2 2 2 2
left_child=1 3 4 -1 -2 6 -6
right_child=2 -3 -4 -5 5 -7 -8
leaf_value=-0.10497848936799486 0.074393671865887787 -0.02716833878991053 0.028100168533608961 -0.18412086894226531 0.12144422542342444 0.1057867476151567 0.14072921338592967
leaf_weight=25.359472543001175 24.962621465325356 30.002910435199738 25.375348076224327 54.900958195328712 27.816074386239052 26.803539216518402 34.918170422315598
leaf_count=102 110 126 115 221 129 124 162
internal_value=0 -0.123212 0.0979275 -0.159115 0.113402 0.124278 0.132178
internal_weight=0 110.263 139.876 80.2604 114.5 89.5378 62.7342
internal_count=1089 449 640 323 525 415 291
is_linear=0
shrinkage=0.1


Tree=4
num_leaves=8
num_cat=0
split_feature=28 28 29 21 16 17 29
split_gain=250.575 32.1002 14.7411 9.41397 2.00357 2.08949 0.31088
threshold=4.5000000000000009 2.5000000000000004 11.845238095238097 2.5000000000000004 1.0000000180025095e-35 20.500000000000004 13.35416666666667
decision_type=2 2 2 2 2 2 2
left_child=1 3 -2 -1 5 6 -4
right_child=2 -3 4 -5 -6 -7 -8
leaf_value=-0.09523449971727474 0.025710893381932026 -0.024358715956557919 0.11954134810962136 -0.169335568663525 0.12597411769812 0.07482294010138163 0.1024560300670512
leaf_weight=25.168035998940468 27.076592624187469 30.111076951026917 21.871907353401184 53.778157457709312 40.059625208377838 25.031593963503838 20.756923884153366
leaf_count=102 119 126 105 221 195 120 101
internal_value=0 -0.112206 0.0916703 -0.145712 0.10825 0.0977559 0.111222
internal_weight=0 109.057 134.797 78.9462 107.72 67.6604 42.6288
internal_count=1089 449 640 323 521 326 206
is_linear=0
shrinkage=0.1


Tree=5
num_leaves=8
num_cat=0
split_feature=28 28 3 21 22 28 32
split_gain=209.468 27.6879 13.8967 9.0099 4.58924 1.31598 0.592397
threshold=4.5000000000000009 2.5000000000000004 14.500000000000002 1.0000000180025095e-35 5.5000000000000009 7.5000000000000009 1.0000000000000002
decision_type=2 2 2 2 2 2 2
left_child=1 3 4 -1 -2 6 -6
right_child=2 -3 -4 -5 5 -7 -8
leaf_value=-0.084280384198361924 0.063031192658715415 -0.021854791645397643 0.01788191990951641 -0.15802700901609332 0.10997435774324418 0.093692085404971454 0.13049560995231813
leaf_weight=24.156323432922363 23.720314666628838 30.199821323156357 24.321839898824692 52.72853048145771 25.361485213041306 24.632183745503426 31.587700173258781
leaf_count=99 110 126 115 224 129 124 162
internal_value=0 -0.102988 0.086011 -0.134857 0.101747 0.113004 0.121357
internal_weight=0 107.085 129.624 76.8849 105.302 81.5814 56.9492
internal_count=1089 449 640 323 525 415 291
is_linear=0
shrinkage=0.1


Tree=6
num_leaves=8
num_cat=0
split_feature=28 28 29 3 16 21 1
split_gain=175.763 24.2549 13.6366 9.0151 2.00866 2.27075 0.114523
threshold=4.5000000000000009 2.5000000000000004 11.845238095238097 6.5000000000000009 1.0000000180025095e-35 7.5000000000000009 10.000000000000002
decision_type=2 2 2 2 2 2 2
left_child=1 3 -2 -1 5 -4 -5
right_child=2 -3 4 6 -6 -7 -8
leaf_value=-0.079633574142244534 0.016667638733103157 -0.019619264569070108 0.10747520667650601 -0.15685597161313669 0.11654820835061229 0.069152820444139465 -0.14701792459256416
leaf_weight=26.951523303985596 26.225222125649452 30.272737979888916 28.824764162302017 24.360731095075607 36.200954422354698 33.352917671203613 23.007789492607117
leaf_count=114 119 126 151 106 195 175 103
internal_value=0 -0.0950721 0.0807412 -0.125806 0.0978216 0.0869186 -0.152077
internal_weight=0 104.593 124.604 74.32 98.3786 62.1777 47.3685
internal_count=1089 449 640 323 521 326 209
is_linear=0
shrinkage=0.1


Tree=7
num_leaves=8
num_cat=0
split_feature=22 1 19 22 20 31 17
split_gain=151.163 24.444 15.0834 7.33281 3.83851 0.898837 0.523538
threshold=4.5000000000000009 3.5000000000000004 1.5000000000000002 5.5000000000000009 5.5000000000000009 13.300000000000002 18.500000000000004
decision_type=2 2 2 2 2 2 2
left_child=1 -1 3 -2 -3 6 -5
right_child=2 4 -4 5 -6 -7 -8
leaf_value=-0.017759441596403015 0.041203914271782986 -0.10371452364916528 -0.0086999556915856851 0.095355300927525991 -0.15231440769499169 0.085518935959140147 0.11562319294375406
leaf_weight=27.668801695108414 27.699932172894478 30.178028240799904 20.115841418504715 20.237333714962006 35.215830191969872 25.952745705842972 34.423254862427711
leaf_count=120 130 137 101 112 159 140 190
internal_value=0 -0.0965496 0.0708224 0.0855912 -0.129886 0.100843 0.108119
internal_weight=0 93.0627 128.429 108.313 65.3939 80.6133 54.6606
internal_count=1089 416 673 572 296 442 302
is_linear=0
shrinkage=0.1


Tree=8
num_leaves=8
num_cat=0
split_feature=28 17 28 21 22 10 33
split_gain=130.754 22.7248 22.166 9.02717 5.98774 1.09881 1.31029
threshold=2.5000000000000004 20.500000000000004 5.5000000000000009 1.0000000180025095e-35 5.5000000000000009 5.5000000000000009 0.55500000000000016
decision_type=2 2 2 2 2 2 2
left_child=3 4 -3 -1 -2 -6 -7
right_child=1 2 -4 -5 5 6 -8
leaf_value=-0.061137995759593972 0.047800979506163528 -0.067837807626273686 0.064701597087060581 -0.1381150742650514 0.081055538664430993 0.12691249293152096 0.092243833061023267
leaf_weight=22.679932847619057 32.290000036358833 24.694946140050888 25.802108466625214 46.406798750162125 19.580768913030624 21.794633448123932 21.811983227729797
leaf_count=99 147 111 141 224 111 127 129
internal_value=0 0.0541385 -0.000115123 -0.112845 0.0828328 0.100735 0.109571
internal_weight=0 145.974 50.4971 69.0867 95.4774 63.1874 43.6066
internal_count=1089 766 252 323 514 367 256
is_linear=0
shrinkage=0.1


Tree=9
num_leaves=8
num_cat=0
split_feature=28 14 1 29 28 3 26
split_gain=111.502 21.11 23.7031 13.4408 10.735 3.72086 1.7643
threshold=4.5000000000000009 1.0000000180025095e-35 3.5000000000000004 11.689583333333335 1.0000000180025095e-35 14.500000000000002 6.5000000000000009
decision_type=2 2 2 2 2 2 2
left_child=1 -1 -3 -2 -4 6 -5
right_child=3 2 4 5 -6 -7 -8
leaf_value=-0.15299109369069896 -0.0061051622495506283 0.036925048889313403 -0.13568975784801959 0.10956600745043413 -0.040006578141198783 0.043290054093116655 0.078698859463969886
leaf_weight=27.244707703590393 19.854157358407974 21.894735410809517 24.068818390369415 37.835111856460571 22.863979622721672 17.583359837532043 36.267666518688202
leaf_count=132 91 95 120 227 102 95 227
internal_value=0 -0.0784861 -0.048994 0.0684922 -0.0890763 0.0846458 0.0944589
internal_weight=0 96.0722 68.8275 111.54 46.9328 91.6861 74.1028
internal_count=1089 449 317 640 222 549 454
is_linear=0
shrinkage=0.1


Tree=10
num_leaves=8
num_cat=0
split_feature=28 21 3 15 3 21 1
split_gain=96.376 19.8124 13.2251 9.52851 3.2323 2.03581 0.146841
threshold=2.5000000000000004 10.500000000000002 5.5000000000000009 1.0000000180025095e-35 11.500000000000002 7.5000000000000009 10.000000000000002
decision_type=2 2 2 2 2 2 2
left_child=2 3 -1 4 -2 -6 -4
right_child=1 -3 6 -5 5 -7 -8
leaf_value=-0.034213795342775452 0.11043355729345411 -0.022050151919884707 -0.13847509830949112 0.022235468943932947 0.091612211092256798 0.046438623034204179 -0.12681216991845312
leaf_weight=19.806234151124954 34.1484604626894 31.563826024532318 22.501487538218498 31.567732587456703 19.521852195262909 20.402604460716248 20.750414714217186
leaf_count=93 195 156 115 170 117 128 115
internal_value=0 0.0474692 -0.101889 0.0682405 0.0878465 0.0685271 -0.13288
internal_weight=0 137.204 63.0581 105.641 74.0729 39.9245 43.2519
internal_count=1089 766 323 610 440 245 230
is_linear=0
shrinkage=0.1


Tree=11
num_leaves=8
num_cat=0
split_feature=22 20 17 3 17 10 23
split_gain=84.5356 19.1695 16.4317 12.5142 5.40809 1.91859 1.07391
threshold=4.5000000000000009 5.5000000000000009 21.500000000000004 14.500000000000002 20.500000000000004 5.5000000000000009 12.919375000000002
decision_type=2 2 2 2 2 2 2
left_child=1 2 -1 4 5 -2 -7
right_child=3 -3 -4 -5 -6 6 -8
leaf_value=0.027442238214686832 0.063711678748664721 -0.12823786480278651 -0.096264943220939758 -0.0087804528613466097 0.039332796727379653 0.12008760003130124 0.087801049064075543
leaf_weight=22.660780936479568 17.568562731146812 38.567102298140526 20.406188115477562 23.15086954832077 30.187373802065849 19.655148513615131 21.649402856826782
leaf_count=106 111 200 110 123 172 116 151
internal_value=0 -0.0770303 -0.0311733 0.0567196 0.073746 0.0913915 0.103165
internal_weight=0 81.6341 43.067 112.211 89.0605 58.8731 41.3046
internal_count=1089 416 216 673 550 378 267
is_linear=0
shrinkage=0.1


Tree=12
num_leaves=8
num_cat=0
split_feature=14 28 1 22 3 27 33
split_gain=79.154 57.0814 10.9444 11.4333 9.89594 3.42318 1.35384
threshold=1.0000000180025095e-35 2.5000000000000004 1.5000000000000002 5.5000000000000009 7.5000000000000009 9.5000000000000018 1.2650000000000003
decision_type=2 2 2 2 2 2 2
left_child=-1 4 6 -4 -2 -5 -3
right_child=1 2 3 5 -6 -7 -8
leaf_value=-0.1550446900682339 -0.0242290415645958 0.11077060093109917 -0.011829259404878771 0.091299652503992301 -0.12451157464189185 0.032719285349537101 0.076386327320452224
leaf_weight=27.908863678574562 18.714804694056511 30.799495883285999 28.962600961327553 26.870489940047264 20.751297473907471 15.864945471286772 18.228420808911324
leaf_count=154 92 191 135 183 122 88 124
internal_value=0 0.0274459 0.0615761 0.0366781 -0.0769577 0.0695525 0.0979866
internal_weight=0 160.192 120.726 71.698 39.4661 42.7354 49.0279
internal_count=1089 935 721 406 214 271 315
is_linear=0
shrinkage=0.1


Tree=13
num_leaves=8
num_cat=0
split_feature=14 28 1 22 3 27 33
split_gain=67.8208 48.339 9.91516 9.83136 9.22991 3.18159 1.25541
threshold=1.0000000180025095e-35 2.5000000000000004 1.5000000000000002 5.5000000000000009 7.5000000000000009 9.5000000000000018 1.2650000000000003
decision_type=2 2 2 2 2 2 2
left_child=-1 4 6 -4 -2 -5 -3
right_child=1 2 3 5 -6 -7 -8
leaf_value=-0.14752834153776337 -0.022020533649732221 0.10624334402760408 -0.010613128998218271 0.087290484592035922 -0.12078089188995081 0.029928417415715287 0.072258109143903043
leaf_weight=26.472559250891209 18.542070493102074 28.994818337261677 29.048417463898659 25.372709631919861 19.326475158333778 15.623136922717093 17.387404203414917
leaf_count=154 92 191 135 183 122 88 124
internal_value=0 0.0257195 0.0576412 0.033894 -0.0724236 0.0654303 0.0935032
internal_weight=0 154.295 116.426 70.0443 37.8685 40.9958 46.3822
internal_count=1089 935 721 406 214 271 315
is_linear=0
shrinkage=0.1


Tree=14
num_leaves=8
num_cat=0
split_feature=14 28 1 27 22 27 33
split_gain=58.2297 40.9206 8.97902 8.67373 8.44158 2.94831 1.17344
threshold=1.0000000180025095e-35 2.5000000000000004 1.5000000000000002 1.0000000180025095e-35 5.5000000000000009 9.5000000000000018 1.2650000000000003
decision_type=2 2 2 2 2 2 2
left_child=-1 3 6 -2 -4 -6 -3
right_child=1 2 4 -5 5 -7 -8
leaf_value=-0.14071077779487032 -0.016758463226558939 0.1019943250746064 -0.0095255358766332017 -0.11460006475152357 0.083423025180688684 0.027346745282616935 0.068274587325443434
leaf_weight=25.053704991936684 17.245543949306011 27.272303581237793 29.124324291944504 19.09068838506937 23.967843018472195 15.400412403047083 16.603297956287861
leaf_count=154 89 191 135 125 183 88 124
internal_value=0 0.0240853 0.0539156 -0.0681634 0.0312909 0.0614866 0.0892342
internal_weight=0 148.704 112.368 36.3362 68.4926 39.3683 43.8756
internal_count=1089 935 721 214 406 271 315
is_linear=0
shrinkage=0.1


Tree=15
num_leaves=8
num_cat=0
split_feature=14 28 3 3 15 8 29
split_gain=50.0629 34.6042 8.74586 8.13535 7.92202 2.88194 2.33833
threshold=1.0000000180025095e-35 2.5000000000000004 7.5000000000000009 14.500000000000002 1.0000000180025095e-35 3.5000000000000004 12.972142857142858
decision_type=2 2 2 2 2 2 2
left_child=-1 2 -2 4 5 -3 -7
right_child=1 3 -4 -5 -6 6 -8
leaf_value=-0.13442745344619195 -0.015326560181365948 0.047936618833130523 -0.11547282509630725 -0.0050465008051101979 0.018191172339422971 0.11818944320224115 0.072168478455888849
leaf_weight=23.674325451254845 17.912593513727188 16.402419462800026 16.992957182228565 21.288207396864891 26.432048670947552 23.960132494568825 20.475651435554028
leaf_count=154 92 121 122 121 160 151 168
internal_value=0 0.0225314 -0.0640804 0.0503803 0.0639008 0.08376 0.0969834
internal_weight=0 143.464 34.9056 108.558 87.2703 60.8382 44.4358
internal_count=1089 935 214 721 600 440 319
is_linear=0
shrinkage=0.1


Tree=16
num_leaves=8
num_cat=0
split_feature=14 29 1 28 9 3 32
split_gain=43.0457 29.2798 15.0185 5.6934 3.53869 3.08658 1.63455
threshold=1.0000000180025095e-35 11.34848484848485 5.0000000000000009 4.5000000000000009 4.5000000000000009 14.500000000000002 1.0000000000000002
decision_type=2 2 2 2 2 2 2
left_child=-1 2 -2 -3 -5 6 -6
right_child=1 3 -4 4 5 -7 -8
leaf_value=-0.12856095823729988 0.029862036132731942 0.00088175334153331713 -0.083177426745390665 0.019578830768338547 0.07181224154319979 0.035477738744079147 0.10930048026271527
leaf_weight=22.348476946353912 18.92545311152935 15.812852919101713 31.015258066356182 12.937486514449118 24.709935866296291 13.701996371150015 21.973384164273739
leaf_count=154 101 79 184 100 201 84 186
internal_value=0 0.0209591 -0.0403402 0.0553038 0.0670405 0.0772091 0.0894576
internal_weight=0 139.076 49.9407 89.1357 73.3228 60.3853 46.6833
internal_count=1089 935 285 650 571 471 387
is_linear=0
shrinkage=0.1


Tree=17
num_leaves=8
num_cat=0
split_feature=14 28 3 1 22 27 33
split_gain=37.0431 26.4877 11.3737 7.98825 6.54343 2.77628 1.19128
threshold=1.0000000180025095e-35 2.5000000000000004 6.5000000000000009 1.5000000000000002 5.5000000000000009 9.5000000000000018 1.2650000000000003
decision_type=2 2 2 2 2 2 2
left_child=-1 2 -2 6 -5 -6 -3
right_child=1 3 -4 4 5 -7 -8
leaf_value=-0.12302600658365814 0.0042146323745133329 0.094264688848855069 -0.11378867111906243 -0.01276742288966318 0.074895899367337357 0.017910235314376174 0.058021367766298564
leaf_weight=21.084655843675137 15.318596363067625 23.892808564007282 17.497994028031826 28.542195931077003 20.908179245889187 14.46342398226261 14.617155052721499
leaf_count=154 78 191 136 135 183 88 124
internal_value=0 0.0194795 -0.0587054 0.04453 0.0228522 0.0515945 0.0805079
internal_weight=0 135.24 32.8166 102.424 63.9138 35.3716 38.51
internal_count=1089 935 214 721 406 271 315
is_linear=0
shrinkage=0.1


Tree=18
num_leaves=8
num_cat=0
split_feature=14 28 3 17 27 2 8
split_gain=31.894 22.3816 10.4231 7.17946 10.0591 4.57188 3.34627
threshold=1.0000000180025095e-35 2.5000000000000004 6.5000000000000009 20.500000000000004 9.5000000000000018 2.5000000000000004 3.5000000000000004
decision_type=2 2 2 2 2 2 2
left_child=-1 2 -2 5 -5 6 -3
right_child=1 3 -4 4 -6 -7 -8
leaf_value=-0.11775956635072403 0.0037865715297354281 0.038232797986703766 -0.11126897956175318 0.05642711321365354 -0.048532285397047389 0.021835287494130447 0.098643479479235296
leaf_weight=19.887512944638729 15.343894094228746 13.210084341466425 16.172985725104809 19.109331339597702 17.486618384718895 19.50764275342226 29.975663259625435
leaf_count=154 78 100 136 129 96 155 241
internal_value=0 0.0181649 -0.0552545 0.0414701 0.00627443 0.0620148 0.0801645
internal_weight=0 130.806 31.5169 99.2893 36.5959 62.6934 43.1857
internal_count=1089 935 214 721 225 496 341
is_linear=0
shrinkage=0.1


Tree=19
num_leaves=8
num_cat=0
split_feature=29 1 28 28 25 2 29
split_gain=27.6124 15.1361 8.39187 3.95794 3.72282 3.1867 2.6734
threshold=11.34848484848485 3.5000000000000004 4.5000000000000009 2.5000000000000004 1.0000000180025095e-35 2.5000000000000004 12.246428571428574
decision_type=2 2 2 2 2 2 2
left_child=1 -1 -2 -3 5 6 -4
right_child=2 3 4 -5 -6 -7 -8
leaf_value=0.024039763709637209 -0.024415391999951984 -0.11299972405076841 0.03799790481793075 -0.050127610126730407 0.0010344167855020998 0.023931884302347703 0.093610779407629463
leaf_weight=17.88632146269083 18.183042868971825 23.512526452541351 12.297787785530089 17.439134731888771 11.869631007313727 15.502314530313013 29.093340836465359
leaf_count=102 101 221 86 79 83 141 276
internal_value=0 -0.0527059 0.0360001 -0.0862258 0.0519758 0.0626037 0.0770875
internal_weight=0 58.838 86.9461 40.9517 68.7631 56.8934 41.3911
internal_count=1089 402 687 300 586 503 362
is_linear=0
shrinkage=0.1


Tree=20
num_leaves=8
num_cat=0
split_feature=14 22 20 3 9 33 15
split_gain=26.6172 16.7225 17.8064 6.65325 4.42049 2.26403 2.89522
threshold=1.0000000180025095e-35 4.5000000000000009 5.5000000000000009 14.500000000000002 4.5000000000000009 -1.3099999999999998 1.0000000180025095e-35
decision_type=2 2 2 2 2 2 2
left_child=-1 2 -2 4 -3 -6 -7
right_child=1 3 -4 -5 5 6 -8
leaf_value=-0.1130663449649537 0.021908519517803437 0.0085906563187706838 -0.1043325955597873 -0.0099586506367604147 0.11207378810602696 0.081386811046912644 0.020099760259557838
leaf_weight=18.102515440434217 26.606455788016319 12.862337969243525 19.261962972581387 17.140069648623466 12.072604451328514 24.318912345916033 11.284842871129511
leaf_count=154 159 101 133 111 110 234 87
internal_value=0 0.0167721 -0.0311051 0.045043 0.0606154 0.0746509 0.0619615
internal_weight=0 123.547 45.8684 77.6788 60.5387 47.6764 35.6038
internal_count=1089 935 292 643 532 431 321
is_linear=0
shrinkage=0.1


Tree=21
num_leaves=8
num_cat=0
split_feature=13 28 3 17 27 2 8
split_gain=23.0077 17.4187 14.0517 8.06427 9.28246 3.52871 2.26105
threshold=1.0000000180025095e-35 2.5000000000000004 5.5000000000000009 20.500000000000004 9.5000000000000018 2.5000000000000004 3.5000000000000004
decision_type=2 2 2 2 2 2 2
left_child=1 2 -1 5 -5 6 -3
right_child=-2 3 -4 4 -6 -7 -8
leaf_value=0.027304952343193186 -0.11503544592996412 0.040714926594110593 -0.10946646100249571 0.048288525763695279 -0.05400346273408773 0.024307782091270311 0.09384077928844603
leaf_weight=13.184021294116976 15.397684868425129 11.546953208744524 17.459153752774 18.470630839467049 17.069241859018803 18.557828471064568 26.162848971784115
leaf_count=75 126 96 179 131 93 154 235
internal_value=0 0.0146614 -0.0506215 0.0364512 -0.000840707 0.0600056 0.0775733
internal_weight=0 122.451 30.6432 91.8075 35.5399 56.2676 37.7098
internal_count=1089 963 254 709 224 485 331
is_linear=0
shrinkage=0.1


Tree=22
num_leaves=8
num_cat=0
split_feature=14 29 1 22 10 3 29
split_gain=21.1294 13.3384 10.5549 3.29369 2.56746 1.90995 2.07473
threshold=1.0000000180025095e-35 11.34848484848485 5.0000000000000009 5.5000000000000009 4.5000000000000009 12.500000000000002 12.74714285714286
decision_type=2 2 2 2 2 2 2
left_child=-1 2 -2 -3 -5 6 -6
right_child=1 3 -4 4 5 -7 -8
leaf_value=-0.10642775098420075 0.032277167754646612 0.012660075774829336 -0.068475909036257568 0.014015033570076933 0.11888152809237909 0.032670181371543802 0.061210268805395068
leaf_weight=16.333189319819212 17.115133486688137 26.664961881935596 26.49195333942771 10.905879430472849 10.1933117993176 10.237611796706913 16.075861342251301
leaf_count=154 101 166 184 97 106 90 191
internal_value=0 0.0149473 -0.0289318 0.0407774 0.0565907 0.0693096 0.0835886
internal_weight=0 117.685 43.6071 74.0776 47.4127 36.5068 26.2692
internal_count=1089 935 285 650 484 387 297
is_linear=0
shrinkage=0.1


Tree=23
num_leaves=8
num_cat=0
split_feature=14 16 22 21 1 31 15
split_gain=18.1512 11.7172 15.3365 8.08084 4.35273 3.55965 4.00923
threshold=1.0000000180025095e-35 1.0000000180025095e-35 3.5000000000000004 11.500000000000002 1.5000000000000002 10.100000000000003 1.0000000180025095e-35
decision_type=2 2 2 2 2 2 2
left_child=-1 2 -2 5 -3 -4 -7
right_child=1 4 3 -5 -6 6 -8
leaf_value=-0.10170451361987698 -0.069421863976336179 0.10763642490043859 0.079783141621994569 -0.047129911221369843 0.030296659811850726 0.051471063160174794 -0.021691406900995996
leaf_weight=15.43000704795122 25.719256356358528 14.431358415633442 16.289877347648144 12.984196145087479 14.679010670632122 18.658604860305786 12.513114526867868
leaf_count=154 193 145 130 79 129 173 86
internal_value=0 0.0137866 -0.00474455 0.0227752 0.0686376 0.0418993 0.0221018
internal_weight=0 115.275 86.165 60.4458 29.1104 47.4616 31.1717
internal_count=1089 935 661 468 274 389 259
is_linear=0
shrinkage=0.1


Tree=24
num_leaves=8
num_cat=0
split_feature=13 22 26 3 10 8 27
split_gain=16.9448 11.7235 13.5659 6.25988 2.98935 1.9747 1.03837
threshold=1.0000000180025095e-35 4.5000000000000009 5.5000000000000009 14.500000000000002 4.5000000000000009 13.000000000000002 7.5000000000000009
decision_type=2 2 2 2 2 2 2
left_child=1 2 -1 4 -3 -6 -7
right_child=-2 3 -4 -5 5 6 -8
leaf_value=0.018434299053125654 -0.10457157681599623 0.010251947347778781 -0.094496266322685041 -0.015143675173406557 0.029089233462275783 0.10669782274245897 0.067737633964053023
leaf_weight=26.217896971851587 13.772954072803257 11.459068488329647 17.899272069334984 16.508090063929558 9.9086873233318311 10.101317606866361 21.193544335663319
leaf_count=186 126 99 149 110 98 114 207
internal_value=0 0.0128964 -0.027384 0.0385873 0.0554303 0.0679948 0.0803132
internal_weight=0 113.288 44.1172 69.1707 52.6626 41.2035 31.2949
internal_count=1089 963 335 628 518 419 321
is_linear=0
shrinkage=0.1


Tree=25
num_leaves=8
num_cat=0
split_feature=14 1 28 22 16 31 3
split_gain=14.413 10.6426 13.8566 4.96546 4.77405 2.07419 1.55586
threshold=1.0000000180025095e-35 1.5000000000000002 1.5000000000000002 5.5000000000000009 1.0000000180025095e-35 10.100000000000003 10.500000000000002
decision_type=2 2 2 2 2 2 2
left_child=-1 4 -3 -4 5 -2 -5
right_child=1 2 3 6 -6 -7 -8
leaf_value=-0.095443280434601929 0.060762724264091773 -0.10676681434023934 -0.020526475245103416 0.063894947123994503 0.1025635657820919 0.004747080505522399 0.017734172165605369
leaf_weight=13.994754333049057 11.725796744227411 12.471123576164244 28.295307848602533 13.038162071257831 13.230213478207586 15.152937561273573 16.595719859004021
leaf_count=154 98 136 148 117 145 133 158
internal_value=0 0.0122744 -0.0111494 0.00943533 0.0533886 0.0291838 0.0380438
internal_weight=0 110.509 70.4003 57.9292 40.1089 26.8787 29.6339
internal_count=1089 935 559 423 376 231 275
is_linear=0
shrinkage=0.1


Tree=26
num_leaves=8
num_cat=0
split_feature=13 17 29 28 2 8 1
split_gain=13.2073 10.331 9.149 3.23269 3.33615 2.23751 0.768448
threshold=1.0000000180025095e-35 20.500000000000004 11.267857142857144 2.5000000000000004 2.5000000000000004 3.5000000000000004 7.5000000000000009
decision_type=2 2 2 2 2 2 2
left_child=1 3 -3 -1 5 -5 -7
right_child=-2 2 -4 4 -6 6 -8
leaf_value=-0.0092834459468856181 -0.095669210340813549 -0.072622581449702392 0.015205657361921596 0.030902874514432993 0.013723088909794044 0.06953735715759804 0.10707423957274859
leaf_weight=11.190219800919293 12.86218426376581 20.963472671806812 27.314194053411484 10.453218102455137 16.509140819311142 11.632490836083891 10.267715100198982
leaf_count=87 126 189 202 96 154 135 100
internal_value=0 0.0115103 -0.0229317 0.039199 0.0503021 0.0689675 0.0871362
internal_weight=0 108.33 48.2777 60.0528 48.8626 32.3534 21.9002
internal_count=1089 963 391 572 485 331 235
is_linear=0
shrinkage=0.1


Tree=27
num_leaves=8
num_cat=0
split_feature=14 1 22 3 16 15 29
split_gain=11.4002 8.83709 10.8676 4.89626 4.3434 2.54445 2.15088
threshold=1.0000000180025095e-35 1.5000000000000002 3.5000000000000004 14.500000000000002 1.0000000180025095e-35 1.0000000180025095e-35 12.207142857142857
decision_type=2 2 2 2 2 2 2
left_child=-1 4 -3 5 -2 6 -4
right_child=1 2 3 -5 -6 -7 -8
leaf_value=-0.089278593489384037 0.026283161363320415 -0.086175877469923792 0.077913716878724129 -0.042511731298956357 0.098585237532447176 -0.006357554342542121 0.019734712535016741
leaf_weight=12.726749565452335 26.198283478617668 14.932648532092569 11.893532738089563 13.078966900706289 12.167435288429258 13.884867519140242 13.644725561141966
leaf_count=154 231 153 77 76 145 100 153
internal_value=0 0.0108972 -0.010902 0.0105074 0.0492133 0.028097 0.0468295
internal_weight=0 105.8 67.4347 52.5021 38.3657 39.4231 25.5383
internal_count=1089 935 559 406 376 330 230
is_linear=0
shrinkage=0.1


Tree=28
num_leaves=8
num_cat=0
split_feature=13 17 29 3 28 33 10
split_gain=10.16 7.51179 7.73247 3.04444 2.65838 3.46692 1.44392
threshold=1.0000000180025095e-35 20.500000000000004 11.689583333333335 7.5000000000000009 2.5000000000000004 0.55500000000000016 6.5000000000000009
decision_type=2 2 2 2 2 2 2
left_child=1 4 3 -3 -1 6 -6
right_child=-2 2 -4 -5 5 -7 -8
leaf_value=-0.0096217931785527438 -0.086611414071657247 -0.020449749771311535 0.024045025251520816 -0.090585923886034023 0.048407559937695008 0.017251914648379243 0.098120083790675272
leaf_weight=11.036301556974648 12.095274643972514 11.656800825148823 21.667227379977703 13.194485593587158 12.30123306810856 22.812520742416382 11.128210958093403
leaf_count=87 126 90 172 129 108 242 135
internal_value=0 0.0102327 -0.0196185 -0.0576877 0.0344763 0.045001 0.0720194
internal_weight=0 103.797 46.5185 24.8513 57.2783 46.242 23.4294
internal_count=1089 963 391 219 572 485 243
is_linear=0
shrinkage=0.1


Tree=29
num_leaves=8
num_cat=0
split_feature=16 22 21 3 3 21 1
split_gain=9.13343 9.45183 7.22544 5.91276 4.19284 5.03621 3.39766
threshold=1.0000000180025095e-35 3.5000000000000004 11.500000000000002 4.5000000000000009 10.500000000000002 7.5000000000000009 1.5000000000000002
decision_type=2 2 2 2 2 2 2
left_child=1 3 4 -1 -3 -6 -2
right_child=6 2 -4 -5 5 -7 -8
leaf_value=0.00043209796169151206 0.092713757732811306 0.061942885358132221 -0.055877073175511688 -0.098517286752460312 0.046293765355375951 -0.03780048388576273 0.019004105812568894
leaf_weight=9.1932054460048693 11.706133611500265 18.839537650346756 14.255696112290023 17.601091049611568 13.280649377033116 15.355705782771109 13.425995232537387
leaf_count=67 149 163 93 228 121 133 135
internal_value=0 -0.0149705 0.00655688 -0.0645674 0.0253041 0.00119981 0.0533369
internal_weight=0 88.5259 61.7316 26.7943 47.4759 28.6364 25.1321
internal_count=1089 805 510 295 417 254 284
is_linear=0
shrinkage=0.1


Tree=30
num_leaves=8
num_cat=0
split_feature=14 1 29 22 16 29 28
split_gain=8.57671 6.43008 8.06733 3.37647 3.23472 2.3365 1.37684
threshold=1.0000000180025095e-35 1.5000000000000002 11.267857142857144 5.5000000000000009 1.0000000180025095e-35 13.320714285714288 4.5000000000000009
decision_type=2 2 2 2 2 2 2
left_child=-1 4 -3 -4 6 -5 -2
right_child=1 2 3 5 -6 -7 -8
leaf_value=-0.082533690057314646 0.00083310607857060902 -0.058622987200022625 -0.017348741991043141 0.065508540934276882 0.08987827400441005 0.0032189436947939565 0.047674301483862341
leaf_weight=11.280580572783945 12.7122218310833 21.962298315018415 17.719227805733681 14.584460183978083 10.580257723107932 10.257017254829405 12.392696656286715
leaf_count=154 74 195 103 145 145 116 157
internal_value=0 0.00943896 -0.00939941 0.0160011 0.043501 0.0397892 0.0239556
internal_weight=0 100.208 64.523 42.5607 35.6852 24.8415 25.1049
internal_count=1089 935 559 364 376 261 231
is_linear=0
shrinkage=0.1


Tree=31
num_leaves=8
num_cat=0
split_feature=13 21 3 22 28 23 33
split_gain=7.85696 6.28961 7.7424 7.03716 4.74263 2.99264 2.90793
threshold=1.0000000180025095e-35 7.5000000000000009 14.500000000000002 4.5000000000000009 3.5000000000000004 12.919375000000002 1.2650000000000003
decision_type=2 2 2 2 2 2 2
left_child=1 4 3 -3 -1 -5 -6
right_child=-2 2 -4 5 6 -7 -8
leaf_value=-0.0010697481187023868 -0.079276391888706096 -0.046057316869119132 -0.085328981253370309 0.059646724053878081 0.1022133198189521 -0.0062852474832106658 0.031704559690648594
leaf_weight=16.741693509742618 11.178640615195034 16.468095986172557 11.509163074195383 18.775502558797601 12.273605961352589 10.86999813839793 11.174767002463339
leaf_count=155 126 140 74 169 149 144 132
internal_value=0 0.00922111 -0.0119565 0.00635605 0.0395846 0.0354717 0.068611
internal_weight=0 97.8128 57.6228 46.1136 40.1901 29.6455 23.4484
internal_count=1089 963 527 453 436 313 281
is_linear=0
shrinkage=0.1


Tree=32
num_leaves=8
num_cat=0
split_feature=14 1 28 27 3 16 21
split_gain=6.71463 5.35808 6.58719 4.11805 4.72935 2.80099 1.06253
threshold=1.0000000180025095e-35 1.5000000000000002 3.5000000000000004 7.5000000000000009 10.500000000000002 1.0000000180025095e-35 7.5000000000000009
decision_type=2 2 2 2 2 2 2
left_child=-1 5 -3 -4 -5 6 -2
right_child=1 2 3 4 -6 -7 -8
leaf_value=-0.07637824413512681 0.042262974789288262 -0.064248849332308997 0.056284114720483072 0.035024133757528046 -0.04165112494346622 0.085305900126803155 0.00038601699138385753
leaf_weight=10.347141288220881 12.541087679564955 16.045114682987332 13.626312982290981 13.983990244567392 18.93919512629509 9.8306605052202922 11.722008440643547
leaf_count=154 120 178 129 99 153 145 111
internal_value=0 0.00837914 -0.00899433 0.0100513 -0.00908362 0.0402761 0.0220313
internal_weight=0 96.6884 62.5946 46.5495 32.9232 34.0938 24.2631
internal_count=1089 935 559 381 252 376 231
is_linear=0
shrinkage=0.1


Tree=33
num_leaves=8
num_cat=0
split_feature=28 3 28 29 3 2 23
split_gain=6.12856 7.71722 6.24264 3.89044 8.55425 3.6142 1.72489
threshold=4.5000000000000009 3.5000000000000004 1.5000000000000002 12.406428571428574 10.500000000000002 1.5000000000000002 13.563492063492065
decision_type=2 2 2 2 2 2 2
left_child=1 -1 -3 4 -2 6 -5
right_child=3 2 -4 5 -6 -7 -8
leaf_value=0.047215601878623774 0.05410083843706795 -0.1096943607710183 -0.020370543640997635 0.097304396993409703 -0.05930054250299395 -0.0013873912128064209 0.039733552419211948
leaf_weight=10.794884562492369 12.477351075038316 11.563914086669682 24.192831294611096 10.888381348922854 14.247476777061818 10.843388138338922 9.9690840952098352
leaf_count=68 109 225 156 138 108 154 131
internal_value=0 -0.0268869 -0.0492583 0.021749 -0.00635544 0.045442 0.0697877
internal_weight=0 46.5516 35.7567 58.4257 26.7248 31.7009 20.8575
internal_count=1089 449 381 640 217 423 269
is_linear=0
shrinkage=0.1


Tree=34
num_leaves=8
num_cat=0
split_feature=13 21 3 22 28 33 23
split_gain=6.06306 4.79501 5.28584 4.99043 3.52596 2.87091 2.6889
threshold=1.0000000180025095e-35 7.5000000000000009 14.500000000000002 4.5000000000000009 3.5000000000000004 1.2650000000000003 12.919375000000002
decision_type=2 2 2 2 2 2 2
left_child=1 4 3 -3 -1 -6 -5
right_child=-2 2 -4 6 5 -7 -8
leaf_value=0.00048020297366831844 -0.072392159428782368 -0.039985402586873525 -0.071121592726205857 0.054253376714635038 0.098391519319799559 0.025021072982655181 -0.0095653278532780023
leaf_weight=16.007387174293399 10.357651654630898 15.63531315885484 11.390573715791104 17.693645332008604 10.922187991440298 10.421847606077788 10.531765194609759
leaf_count=155 126 140 74 169 149 132 144
internal_value=0 0.00828273 -0.0104269 0.00533543 0.0359586 0.0625663 0.0304407
internal_weight=0 92.6027 55.2513 43.8607 37.3514 21.344 28.2254
internal_count=1089 963 527 453 436 281 313
is_linear=0
shrinkage=0.1


Tree=35
num_leaves=8
num_cat=0
split_feature=16 22 21 3 32 31 3
split_gain=5.35872 5.53075 5.32119 4.63025 3.15599 3.13999 3.57733
threshold=1.0000000180025095e-35 3.5000000000000004 11.500000000000002 6.5000000000000009 0.55000000000000016 10.100000000000003 10.500000000000002
decision_type=2 2 2 2 2 2 2
left_child=1 3 5 -1 -2 -3 -7
right_child=4 2 -4 -5 -6 6 -8
leaf_value=-0.0089054186427662552 0.084965933608780575 0.059627223543495769 -0.049880199775213532 -0.099101518441765069 0.0085843975575269609 0.046680136583482412 -0.025705827277639981
leaf_weight=11.52141919732094 10.13651265949011 14.652945993468164 13.525381132960318 11.247992815449832 11.6000989517197 11.239432489499452 17.391940541565418
leaf_count=96 127 140 93 199 157 107 170
internal_value=0 -0.0118203 0.00486976 -0.0534619 0.0442037 0.0219779 0.00270976
internal_weight=0 79.5791 56.8097 22.7694 21.7366 43.2843 28.6314
internal_count=1089 805 510 295 284 417 277
is_linear=0
shrinkage=0.1


Tree=36
num_leaves=8
num_cat=0
split_feature=13 26 22 28 3 10 28
split_gain=4.99192 4.10847 8.57592 4.3394 4.09411 3.00924 1.19608
threshold=1.0000000180025095e-35 5.5000000000000009 4.5000000000000009 3.5000000000000004 14.500000000000002 4.5000000000000009 5.5000000000000009
decision_type=2 2 2 2 2 2 2
left_child=1 3 -3 -1 5 -4 -7
right_child=-2 2 4 -5 -6 6 -8
leaf_value=0.0064070249936419247 -0.066790814835277754 -0.07702478071565827 -0.019211623685274737 0.085912729031799751 -0.037997941595853298 0.017016841087216055 0.061813630259937802
leaf_weight=16.667020939290527 10.011597305536268 13.576004693284629 9.3061404563486558 11.672652348875998 11.842899139970539 8.9628934301435965 17.79139650799334
leaf_count=152 126 149 96 93 94 73 306
internal_value=0 0.00765323 -0.00686751 0.0391541 0.0130154 0.0297691 0.0468064
internal_weight=0 89.819 61.4793 28.3397 47.9033 36.0604 26.7543
internal_count=1089 963 718 245 569 475 379
is_linear=0
shrinkage=0.1


Tree=37
num_leaves=8
num_cat=0
split_feature=16 29 17 27 17 32 3
split_gain=4.33059 4.62649 4.99419 3.86577 3.49206 2.73734 1.80314
threshold=1.0000000180025095e-35 11.267857142857144 19.500000000000004 7.5000000000000009 20.500000000000004 0.55000000000000016 5.5000000000000009
decision_type=2 2 2 2 2 2 2
left_child=1 2 -1 -3 -5 -2 -4
right_child=5 3 6 4 -6 -7 -8
leaf_value=0.010045932121285454 0.080063908528958866 0.051670489822020528 -0.036690582376387629 0.021729895800284851 -0.042657653524716996 0.0073754816466378159 -0.1011614867947563
leaf_weight=11.290562334470453 9.5490767098963278 14.431442013010381 7.3322874698787954 16.994151532649994 16.701227532699704 11.325363755226133 10.623493037186561
leaf_count=96 127 165 67 176 125 157 176
internal_value=0 -0.0106983 -0.0420665 0.00836385 -0.010184 0.040627 -0.0748346
internal_weight=0 77.3732 29.2463 48.1268 33.6954 20.8744 17.9558
internal_count=1089 805 339 466 301 284 243
is_linear=0
shrinkage=0.1


Tree=38
num_leaves=8
num_cat=0
split_feature=20 28 15 23 3 21 29
split_gain=4.41658 13.019 3.66092 7.23704 4.43642 4.57265 2.29326
threshold=4.5000000000000009 2.5000000000000004 1.0000000180025095e-35 12.260714285714288 11.500000000000002 7.5000000000000009 12.658958333333334
decision_type=2 2 2 2 2 2 2
left_child=-1 -2 4 -4 6 -6 -3
right_child=1 2 3 -5 5 -7 -8
leaf_value=0.067417830708536949 -0.098448301587189313 0.082238630333915819 -0.078022089991724664 0.028094577597123943 0.053821116688485209 -0.034585320900580904 0.018065612785557225
leaf_weight=8.8766312915831787 13.126571535132824 14.216484304517509 11.939980808645489 13.91854130476713 9.072777218185367 16.473727120086551 9.1544784028083068
leaf_count=57 267 128 81 134 117 174 131
internal_value=0 -0.00659539 0.00952895 -0.020904 0.0256163 -0.003188 0.0571019
internal_weight=0 87.9026 74.776 25.8585 48.9175 25.5465 23.371
internal_count=1089 1032 765 215 550 291 259
is_linear=0
shrinkage=0.1


Tree=39
num_leaves=8
num_cat=0
split_feature=20 28 15 23 3 31 3
split_gain=4.25653 11.7803 3.05028 5.87426 3.75014 3.88908 2.28313
threshold=2.5000000000000004 2.5000000000000004 1.0000000180025095e-35 12.260714285714288 11.500000000000002 10.100000000000003 8.5000000000000018
decision_type=2 2 2 2 2 2 2
left_child=-1 -2 4 -4 6 -6 -3
right_child=1 2 3 -5 5 -7 -8
leaf_value=0.067226660351515463 -0.096491766365493087 0.022598957461942727 -0.069963431331859699 0.025669263465262961 0.05024069907210317 -0.031646824087461105 0.086124295322838454
leaf_weight=8.6070412509143335 12.453474145382641 11.78301469050348 12.07599835470319 13.721070868894456 8.9478606451302785 16.484865380451083 10.883352926000951
leaf_count=46 277 127 82 134 85 206 132
internal_value=0 -0.00651848 0.00864442 -0.0190978 0.0235235 -0.00283677 0.0531009
internal_weight=0 86.3496 73.8962 25.7971 48.0991 25.4327 22.6664
internal_count=1089 1043 766 216 550 291 259
is_linear=0
shrinkage=0.1


Tree=40
num_leaves=8
num_cat=0
split_feature=13 26 22 3 28 8 33
split_gain=4.07708 3.15629 6.35077 3.26619 2.46736 2.79211 1.18
threshold=1.0000000180025095e-35 5.5000000000000009 5.5000000000000009 6.5000000000000009 5.5000000000000009 25.000000000000004 1.2650000000000003
decision_type=2 2 2 2 2 2 2
left_child=1 3 -3 -1 -4 6 -6
right_child=-2 2 4 -5 5 -7 -8
leaf_value=0.078007077492248084 -0.062572231217601498 -0.048899120529500829 -0.025570073740138612 0.0062588240238294277 -0.019632401958178929 0.071506607504421449 0.035623145692295972
leaf_weight=10.819133892655374 9.3296256242319924 21.56803463306278 9.0613924264907819 15.342073797248302 8.0755798760801571 11.71874194126576 7.4122117869555941
leaf_count=64 126 214 78 181 126 195 105
internal_value=0 0.00710863 -0.00592862 0.0359308 0.0196253 0.0346781 0.00681203
internal_weight=0 83.9972 57.836 26.1612 36.2679 27.2065 15.4878
internal_count=1089 963 718 245 504 426 231
is_linear=0
shrinkage=0.1


Tree=41
num_leaves=8
num_cat=0
split_feature=13 17 4 21 33 8 23
split_gain=3.35106 2.81868 3.98515 3.05914 2.34934 2.09026 3.46434
threshold=1.0000000180025095e-35 25.500000000000004 1.0000000180025095e-35 11.500000000000002 -2.4099999999999997 3.5000000000000004 13.195000000000002
decision_type=2 2 2 2 2 2 2
left_child=1 3 -3 4 -1 -6 -7
right_child=-2 2 -4 -5 5 6 -8
leaf_value=0.071797463984683937 -0.057087307557093729 0.02372997421711627 -0.065159216475701845 -0.035771240622186652 -0.014564456861324982 0.01123122568105251 0.088523551284914972
leaf_weight=9.3218380920588952 9.2100252779200655 9.0540516506880522 11.386851460672915 9.3669746443629247 14.504867158830164 21.860298909246925 7.8926299028098574
leaf_count=114 126 88 141 81 163 232 144
internal_value=0 0.00647646 -0.0257868 0.0169534 0.026171 0.0165608 0.0317347
internal_weight=0 83.3875 20.4409 62.9466 53.5796 44.2578 29.7529
internal_count=1089 963 229 734 653 539 376
is_linear=0
shrinkage=0.1


Tree=42
num_leaves=8
num_cat=0
split_feature=26 28 21 8 23 8 29
split_gain=3.1093 10.604 2.38452 1.80614 3.5775 3.17808 4.18589
threshold=1.0000000180025095e-35 1.5000000000000002 12.500000000000002 11.000000000000002 12.205263157894739 19.500000000000004 12.972142857142858
decision_type=2 2 2 2 2 2 2
left_child=-1 -2 3 -3 -5 -6 -7
right_child=1 2 -4 4 5 6 -8
leaf_value=0.058185981534794921 -0.10805471858298131 -0.0093863449644967911 -0.033566107263864595 -0.0077200127405384657 0.10238771291912743 0.080930042793736223 -0.022214830968129453
leaf_weight=8.3942408896982652 9.0212630964815599 20.764318649657071 12.259820125997065 17.441206520423293 8.1824574191123265 7.3377341385930768 8.4833305049687606
leaf_count=42 247 219 89 158 119 78 137
internal_value=0 -0.00566152 0.00674253 0.0146863 0.026747 0.0517912 0.0256233
internal_weight=0 83.4901 74.4689 62.209 41.4447 24.0035 15.8211
internal_count=1089 1047 800 711 492 334 215
is_linear=0
shrinkage=0.1


Tree=43
num_leaves=8
num_cat=0
split_feature=13 26 22 3 33 10 15
split_gain=2.83582 2.42434 5.29365 3.14926 3.19775 4.01042 2.73002
threshold=1.0000000180025095e-35 5.5000000000000009 4.5000000000000009 14.500000000000002 -1.3099999999999998 4.5000000000000009 1.0000000180025095e-35
decision_type=2 2 2 2 2 2 2
left_child=1 6 -3 4 -4 -6 -1
right_child=-2 2 3 -5 5 -7 -8
leaf_value=0.065787104635841406 -0.053059628052606694 -0.066467767523875357 0.076934678834368248 -0.035319547967037464 -0.056732048112655045 0.032639516801240047 0.00032161575000151183
leaf_weight=12.189093039371073 9.0195887023583037 11.387004458345471 8.8583127660676748 11.45791028998792 7.0631239153444865 17.36625718139112 13.343119191937149
leaf_count=115 126 149 123 94 76 276 130
internal_value=0 0.00602771 -0.00559256 0.00989916 0.0254638 0.00680004 0.0315749
internal_weight=0 81.6648 56.1326 44.7456 33.2877 24.4294 25.5322
internal_count=1089 963 718 569 475 352 245
is_linear=0
shrinkage=0.1


Tree=44
num_leaves=8
num_cat=0
split_feature=28 20 28 8 29 3 1
split_gain=2.86804 5.33493 4.92542 2.48523 2.57643 2.48587 0.00787626
threshold=4.5000000000000009 1.0000000180025095e-35 1.5000000000000002 25.000000000000004 13.015625000000002 10.500000000000002 7.5000000000000009
decision_type=2 2 2 2 2 2 2
left_child=1 -1 6 4 -2 -5 -3
right_child=3 2 -4 5 -6 -7 -8
leaf_value=0.049924150315693472 -0.028265496644485827 -0.11088670285086276 -0.015705913765343159 0.082233258136183957 0.032812505977016238 0.014194994635094866 -0.10454875105710307
leaf_weight=8.3881141580641252 17.327277720905844 3.3842516727745551 21.87034497410059 8.7172909546643513 11.483492073602973 13.984820418059824 4.6615109406411648
leaf_count=42 180 66 160 113 172 175 181
internal_value=0 -0.0205551 -0.0403167 0.0155768 -0.00392082 0.0403207 -0.107215
internal_weight=0 38.3042 29.9161 51.5129 28.8108 22.7021 8.04576
internal_count=1089 449 407 640 352 288 247
is_linear=0
shrinkage=0.1


Tree=45
num_leaves=8
num_cat=0
split_feature=1 29 3 22 16 3 31
split_gain=2.43089 4.38626 4.10596 6.17655 2.22598 1.97617 1.20787
threshold=1.5000000000000002 12.406428571428574 11.500000000000002 4.5000000000000009 1.0000000180025095e-35 11.500000000000002 10.100000000000003
decision_type=2 2 2 2 2 2 2
left_child=4 2 3 -2 6 -3 -1
right_child=1 5 -4 -5 -6 -7 -8
leaf_value=0.034014480194821388 -0.058856413988154166 -0.0091490073592240574 -0.072684221833102955 0.051681166883207952 0.068008045551077964 0.050855964066144226 -0.012604137237261571
leaf_weight=9.5367173748090881 10.205775460693987 10.233834999613466 15.363301126752047 10.016232844442127 8.0448979577049631 11.836367357522247 13.320992591790853
leaf_count=112 175 122 165 87 149 130 149
internal_value=0 -0.0119915 -0.0337132 -0.00410566 0.0227685 0.023032 0.00684613
internal_weight=0 57.6555 35.5853 20.222 30.9026 22.0702 22.8577
internal_count=1089 679 427 262 410 252 261
is_linear=0
shrinkage=0.1


Tree=46
num_leaves=8
num_cat=0
split_feature=13 26 22 29 33 7 26
split_gain=2.36203 2.08672 3.63464 2.2882 1.99753 2.94953 1.90592
threshold=1.0000000180025095e-35 5.5000000000000009 5.5000000000000009 11.154761904761907 -1.3099999999999998 17.500000000000004 7.5000000000000009
decision_type=2 2 2 2 2 2 2
left_child=1 3 -3 -1 -4 6 -6
right_child=-2 2 4 -5 5 -7 -8
leaf_value=0.0036213304146307463 -0.049278517942043638 -0.039166931966193044 0.054165615394955749 0.065322940372255819 0.056372216533682067 -0.045902658484580111 -0.013963321877729893
leaf_weight=14.195143540389838 8.7055190983228368 20.030383775942028 9.2561253486201149 10.424006583169101 8.8884572768583912 9.010230756364761 6.8000291353091589
leaf_count=140 126 214 137 105 143 135 89
internal_value=0 0.00561908 -0.00538383 0.0297464 0.0145452 -0.000302951 0.0258859
internal_weight=0 78.6044 53.9852 24.6192 33.9548 24.6987 15.6885
internal_count=1089 963 718 245 504 367 232
is_linear=0
shrinkage=0.1


Tree=47
num_leaves=8
num_cat=0
split_feature=28 20 33 23 8 28 29
split_gain=2.13662 4.17567 4.63725 4.424 2.23058 2.24148 1.77396
threshold=4.5000000000000009 1.0000000180025095e-35 0.55500000000000016 11.225000000000001 25.000000000000004 5.5000000000000009 13.015625000000002
decision_type=2 2 2 2 2 2 2
left_child=1 -1 3 -3 6 -6 -2
right_child=4 2 -4 -5 5 -7 -8
leaf_value=0.044398083998068771 -0.024882464493554107 -0.062596714138646189 -0.083284218634197715 0.042653291282245494 -0.0020400828431838911 0.063557378815581822 0.026734873502099705
leaf_weight=8.2748584523797017 17.266323042102162 6.8955054087564411 12.089448227547107 9.4899012614041549 8.6096568070352095 13.188444274477659 10.837089444510637
leaf_count=42 180 145 172 90 72 216 172
internal_value=0 -0.0181316 -0.0363029 -0.00163929 0.013642 0.0376482 -0.00497806
internal_weight=0 36.7497 28.4749 16.3854 49.9015 21.7981 28.1034
internal_count=1089 449 407 235 640 288 352
is_linear=0
shrinkage=0.1


Tree=48
num_leaves=8
num_cat=0
split_feature=16 23 20 32 19 31 22
split_gain=2.02941 3.42049 3.1884 2.36175 2.18936 4.10416 3.03127
threshold=1.0000000180025095e-35 10.873015873015875 4.5000000000000009 0.55000000000000016 1.5000000000000002 10.100000000000003 5.5000000000000009
decision_type=2 2 2 2 2 2 2
left_child=1 2 -1 -2 5 -3 -7
right_child=3 4 -4 -5 -6 6 -8
leaf_value=0.0034467338882635912 0.070738644953633953 0.05936634719508313 -0.090558419392855416 -0.0024002044275576386 -0.034917937445833928 -0.039044072658049496 0.026755060466876021
leaf_weight=6.3040183736011377 7.9527185885235694 13.767936930526046 8.4366247770376486 9.9251680858433229 11.32273536082357 14.513241468928756 13.52696954179555
leaf_count=42 127 161 192 157 90 134 186
internal_value=0 -0.00773571 -0.050356 0.0301346 0.00408885 0.0146529 -0.0073017
internal_weight=0 67.8715 14.7406 17.8779 53.1309 41.8081 28.0402
internal_count=1089 805 234 284 571 481 320
is_linear=0
shrinkage=0.1


Tree=49
num_leaves=8
num_cat=0
split_feature=13 26 22 3 33 29 29
split_gain=1.9923 1.80304 2.76568 2.31426 2.44853 3.24994 3.00942
threshold=1.0000000180025095e-35 5.5000000000000009 4.5000000000000009 14.500000000000002 -1.3099999999999998 12.175000000000001 13.431785714285716
decision_type=2 2 2 2 2 2 2
left_child=1 -1 -3 4 -4 -6 -7
right_child=-2 2 3 -5 5 6 -8
leaf_value=0.028125198666924339 -0.045774521126846796 -0.052021027397951114 0.068619029244981089 -0.032922516842486531 0.053515984931526643 -0.071213874048026538 0.01866425155461551
leaf_weight=23.767607432790101 8.4969221157953125 10.126894150394945 7.8085037637501911 11.163212345913051 8.4477617247030228 7.1055725840851647 7.8313851347193122
leaf_count=245 126 149 123 94 84 125 143
internal_value=0 0.00527456 -0.00507359 0.00615096 0.0201343 0.00394454 -0.0240911
internal_weight=0 76.2509 52.4833 42.3564 31.1932 23.3847 14.937
internal_count=1089 963 718 569 475 352 268
is_linear=0
shrinkage=0.1


Tree=50
num_leaves=8
num_cat=0
split_feature=28 33 22 20 7 7 8
split_gain=1.78768 3.24525 2.43072 2.05432 3.35667 2.30837 1.68861
threshold=4.5000000000000009 0.55500000000000016 3.5000000000000004 6.5000000000000009 10.500000000000002 10.500000000000002 25.000000000000004
decision_type=2 2 2 2 2 2 2
left_child=1 2 -1 5 -5 -2 -7
right_child=3 -3 -4 4 -6 6 -8
leaf_value=-0.023266930757700258 0.06561775446744611 -0.051138125375265131 0.046613769458532989 -0.061997266525161444 0.02104059339900307 -0.026527468986663028 0.036106285946957591
leaf_weight=10.524031564593317 11.085244329646232 15.553947296924887 9.4447118770331127 8.022443914785983 12.38076809979975 7.9988834653049734 9.3193560997024161
leaf_count=178 149 192 79 100 172 90 129
internal_value=0 -0.0168908 0.00978488 0.0125969 -0.0116095 0.0299853 0.00717724
internal_weight=0 35.5227 19.9687 48.8067 20.4032 28.4035 17.3182
internal_count=1089 449 257 640 272 368 219
is_linear=0
shrinkage=0.1


Tree=51
num_leaves=8
num_cat=0
split_feature=17 21 21 33 28 2 29
split_gain=1.73115 2.59725 2.31407 2.09146 1.66507 3.58108 2.14448
threshold=26.500000000000004 10.500000000000002 11.500000000000002 -2.4099999999999997 4.5000000000000009 2.5000000000000004 12.261363636363638
decision_type=2 2 2 2 2 2 2
left_child=2 -2 3 -1 -5 6 -6
right_child=1 -3 -4 4 5 -7 -8
leaf_value=0.059488305723853697 -0.059978587558673802 0.017498208782315484 -0.033841068538653027 -0.014771079557474818 0.0092116118585870554 -0.029066282681612095 0.080101425509522636
leaf_weight=9.2416096581146103 10.324059473816307 7.4485481707379213 11.162219083867965 19.512341979891062 7.4395864056423369 8.5691919336095435 10.007687851786612
leaf_count=127 171 81 104 183 83 121 219
internal_value=0 -0.0275079 0.00765773 0.0161152 0.00731115 0.0238728 0.0498737
internal_weight=0 17.7726 65.9326 54.7704 45.5288 26.0165 17.4473
internal_count=1089 252 837 733 606 423 302
is_linear=0
shrinkage=0.1


Tree=52
num_leaves=8
num_cat=0
split_feature=13 3 22 26 17 28 3
split_gain=1.65829 1.89769 3.06823 3.07903 3.26622 2.10632 1.82921
threshold=1.0000000180025095e-35 3.5000000000000004 3.5000000000000004 5.5000000000000009 26.500000000000004 2.5000000000000004 9.5000000000000018
decision_type=2 2 2 2 2 2 2
left_child=1 -1 5 -4 6 -3 -5
right_child=-2 2 3 4 -6 -7 -8
leaf_value=0.039994625176098191 -0.042312475648226301 -0.10518982699631359 0.057545985899018486 -0.031439615465108095 -0.061186392290603644 -0.0073127089854702941 0.021567540485618181
leaf_weight=12.781581350602208 8.2580818752758187 4.4686575597152096 9.7385810129344446 8.6151893585920316 8.2771527571603638 4.3283206708729267 26.644777157343924
leaf_count=97 126 175 98 100 62 29 402
internal_value=0 0.00490629 -0.00231886 0.00671547 -0.00465454 -0.057032 0.00861612
internal_weight=0 74.8543 62.0727 53.2757 43.5371 8.79698 35.26
internal_count=1089 963 866 662 564 204 502
is_linear=0
shrinkage=0.1


Tree=53
num_leaves=8
num_cat=0
split_feature=1 29 3 22 29 16 31
split_gain=1.4951 2.92812 3.4399 4.37062 2.04068 1.63182 0.830458
threshold=1.5000000000000002 12.406428571428574 11.500000000000002 4.5000000000000009 13.35416666666667 1.0000000180025095e-35 10.100000000000003
decision_type=2 2 2 2 2 2 2
left_child=5 2 3 -2 -3 6 -1
right_child=1 4 -4 -5 -6 -7 -8
leaf_value=0.028644261082183799 -0.049897258895606068 0.057616995578222585 -0.064917072217117539 0.04746693705432492 -0.0061176557417577798 0.060256569812070608 -0.011376947610640981
leaf_weight=8.751967549324041 8.940148279070856 8.4349810201674718 14.383090754039584 9.5199059601873142 12.422001891769467 7.0931532122194758 12.72117832675576
leaf_count=112 175 106 165 87 146 149 149
internal_value=0 -0.00964451 -0.028253 0.000313752 0.0196579 0.0186715 0.00493479
internal_weight=0 53.7001 32.8431 18.4601 20.857 28.5663 21.4731
internal_count=1089 679 427 262 252 410 261
is_linear=0
shrinkage=0.1


Tree=54
num_leaves=8
num_cat=0
split_feature=13 26 27 17 15 2 27
split_gain=1.3428 1.55587 2.84729 2.76343 2.01315 1.84804 1.57996
threshold=1.0000000180025095e-35 5.5000000000000009 6.5000000000000009 20.500000000000004 1.0000000180025095e-35 2.5000000000000004 9.5000000000000018
decision_type=2 2 2 2 2 2 2
left_child=1 4 -3 5 -1 6 -4
right_child=-2 2 3 -5 -6 -7 -8
leaf_value=0.057840475270407955 -0.038352472084825222 -0.062891222762202312 0.083879487671888853 -0.022183077911849203 -0.0019300767782654976 -0.0048806801267188326 0.014191343924675257
leaf_weight=10.671295161359012 8.1357901101000589 7.3338831900618962 7.2926676236093062 20.456482914276421 11.940298144239932 9.6131540210917574 5.8735726568847895
leaf_count=115 126 152 165 205 130 131 65
internal_value=0 0.00447249 -0.00527755 0.00449517 0.026278 0.0284529 0.052791
internal_weight=0 73.1814 50.5698 43.2359 22.6116 22.7794 13.1662
internal_count=1089 963 718 566 245 361 230
is_linear=0
shrinkage=0.1


Tree=55
num_leaves=8
num_cat=0
split_feature=28 20 28 4 9 21 3
split_gain=1.32899 2.68092 3.40408 2.20993 2.4762 3.84343 6.07884
threshold=4.5000000000000009 1.0000000180025095e-35 2.5000000000000004 1.0000000180025095e-35 4.5000000000000009 7.5000000000000009 10.500000000000002
decision_type=2 2 2 2 2 2 2
left_child=1 -1 -3 -2 -5 -6 -7
right_child=3 2 -4 4 5 6 -8
leaf_value=0.03544388688059278 0.058699623318474725 -0.086638386078402893 -0.0070561062598763899 -0.045541443696131556 0.063001183120361834 0.055604513715639431 -0.058019640787600892
leaf_weight=8.0540980957448465 8.0719315353780967 7.6406168537214425 18.125137550756335 8.7767282947897893 10.68695003911853 7.9581953613087562 11.530479406006632
leaf_count=42 65 281 126 101 214 102 158
internal_value=0 -0.0149142 -0.0306556 0.0110777 0.00120924 0.0148069 -0.0116212
internal_weight=0 33.8199 25.7658 47.0243 38.9524 30.1756 19.4887
internal_count=1089 449 407 640 575 474 260
is_linear=0
shrinkage=0.1


Tree=56
num_leaves=8
num_cat=0
split_feature=21 17 7 17 23 7 32
split_gain=1.31351 1.83607 2.25689 2.24371 5.19253 3.50943 1.45342
threshold=12.500000000000002 26.500000000000004 22.500000000000004 18.500000000000004 12.33809523809524 7.5000000000000009 1.0000000000000002
decision_type=2 2 2 2 2 2 2
left_child=1 2 3 4 -1 6 -5
right_child=-2 -3 -4 5 -6 -7 -8
leaf_value=0.02968193371632535 -0.030535512661416804 -0.028887529455332208 0.064228560120363196 0.083810213667747088 -0.087496804780961779 -0.010888387513520944 0.02253645140315453
leaf_weight=7.8948770202696306 11.840208020992575 12.615591491572557 7.5415455708280197 8.1216504969634098 7.2584422300569713 17.306334151886404 7.3968741861172012
leaf_count=75 115 203 116 112 135 231 102
internal_value=0 0.00554973 0.0133748 0.00538126 -0.0264467 0.0200744 0.0546042
internal_weight=0 68.1353 55.5197 47.9782 15.1533 32.8249 15.5185
internal_count=1089 974 771 655 210 445 214
is_linear=0
shrinkage=0.1


Tree=57
num_leaves=7
num_cat=0
split_feature=29 3 17 21 23 15
split_gain=1.38684 3.54568 2.41793 2.13955 2.70257 1.42116
threshold=11.34848484848485 10.500000000000002 18.500000000000004 7.5000000000000009 12.919375000000002 1.0000000180025095e-35
decision_type=2 2 2 2 2 2
left_child=1 5 -2 -4 -5 -1
right_child=2 -3 3 4 -6 -7
leaf_value=0.0282930454821059 -0.027882068848129299 -0.074940049112157861 0.058994381011041923 0.032122359312506121 -0.032859659795433864 -0.023735342587256486
leaf_weight=11.249195853713903 12.602264281362293 7.7885971933137617 11.371062087826429 16.76635428797454 10.351680878549812 9.8444493603892624
leaf_count=123 198 153 196 171 122 126
internal_value=0 -0.0172793 0.0101362 0.0225843 0.00731698 0.00401129
internal_weight=0 28.8822 51.0914 38.4891 27.118 21.0936
internal_count=1089 402 687 489 293 249
is_linear=0
shrinkage=0.1


Tree=58
num_leaves=8
num_cat=0
split_feature=22 20 28 17 28 1 28
split_gain=1.29731 3.36739 2.54177 1.78985 1.74817 2.17212 3.45787
threshold=5.5000000000000009 5.5000000000000009 3.5000000000000004 20.500000000000004 5.5000000000000009 10.000000000000002 7.5000000000000009
decision_type=2 2 2 2 2 2 2
left_child=1 2 -1 -3 -2 6 -6
right_child=4 3 -4 -5 5 -7 -8
leaf_value=-0.010938187664088158 -0.020482761178819555 -0.015099090565006947 0.057340434344466923 -0.074568231080997402 0.04025752978612579 0.068339122624839488 -0.056000469494957052
leaf_weight=14.429860391421245 10.237876700237392 11.774413904175164 8.7632228983566147 8.8762257217895222 10.804644231684511 8.8828154485672695 5.7011122079566112
leaf_count=181 93 124 94 152 249 104 92
internal_value=0 -0.0112905 0.0148601 -0.0406606 0.0144007 0.0284674 0.00700988
internal_weight=0 43.8437 23.1931 20.6506 35.6264 25.3886 16.5058
internal_count=1089 551 275 276 538 445 341
is_linear=0
shrinkage=0.1


Tree=59
num_leaves=8
num_cat=0
split_feature=13 27 3 27 22 26 10
split_gain=1.22163 1.41405 1.61682 2.8821 2.08378 2.97061 1.80627
threshold=1.0000000180025095e-35 12.500000000000002 3.5000000000000004 10.500000000000002 3.5000000000000004 5.5000000000000009 4.5000000000000009
decision_type=2 2 2 2 2 2 2
left_child=1 2 -1 4 -4 -6 -7
right_child=-2 -3 3 -5 5 6 -8
leaf_value=0.044727476288248566 -0.037437071444164652 -0.030692772331661951 -0.061426360743896784 0.058094096096407401 0.055283503060537136 -0.05943741279061119 0.00020150330787995676
leaf_weight=11.019252263009546 7.756768802413716 9.8982090717181546 6.2133428014349183 7.8351849988102904 7.9380218526348463 6.6711119059473303 21.27009405894205
leaf_count=87 126 82 174 77 94 83 366
internal_value=0 0.00436429 0.0100578 0.00240606 -0.00795981 0.00129919 -0.0140376
internal_weight=0 70.8452 60.947 49.9278 42.0926 35.8792 27.9412
internal_count=1089 963 881 794 717 543 449
is_linear=0
shrinkage=0.1


Tree=60
num_leaves=8
num_cat=0
split_feature=22 20 28 23 28 1 28
split_gain=1.25919 2.50311 2.08573 1.60953 1.5217 1.88671 2.77172
threshold=5.5000000000000009 5.5000000000000009 3.5000000000000004 12.328809523809523 5.5000000000000009 10.000000000000002 7.5000000000000009
decision_type=2 2 2 2 2 2 2
left_child=1 2 -1 -3 -2 6 -6
right_child=4 3 -4 -5 5 -7 -8
leaf_value=-0.011575629000288218 -0.018251034575487858 -0.059281494371987487 0.051483609639782352 -0.0017788742004126081 0.03847952603596539 0.065463326636197333 -0.046797153913953719
leaf_weight=14.210780665511267 10.258683121763168 12.372379819629716 8.3137925164774042 8.0250297009479237 10.556640236638492 8.5927000464871508 5.9651081562042227
leaf_count=181 93 205 94 71 249 104 92
internal_value=0 -0.011281 0.0116995 -0.036658 0.0142012 0.0274571 0.00769074
internal_weight=0 42.922 22.5246 20.3974 35.3731 25.1144 16.5217
internal_count=1089 551 275 276 538 445 341
is_linear=0
shrinkage=0.1


Tree=61
num_leaves=8
num_cat=0
split_feature=1 29 10 8 32 33 8
split_gain=1.12839 2.08164 2.44374 2.36615 2.36231 1.20401 1.3687
threshold=1.5000000000000002 12.33809523809524 8.5000000000000018 11.000000000000002 0.55000000000000016 1.7650000000000003 23.000000000000004
decision_type=2 2 2 2 2 2 2
left_child=5 2 3 -2 -3 6 -1
right_child=1 4 -4 -5 -6 -7 -8
leaf_value=0.049464453122987917 -0.042250540833155333 -0.023871836042660549 -0.058651192604686125 0.034972613694302733 0.043430171013481178 -0.018408652416505033 -0.0044576593295890211
leaf_weight=12.530431745573884 7.2689071029890391 9.0296774627640861 12.850123913027344 8.7368604750372452 12.34620234929025 7.2209072653204194 7.5398352500051251
leaf_count=174 87 116 177 152 147 112 124
internal_value=0 -0.00865183 -0.0261728 -9.77404e-05 0.0150002 0.0166088 0.0292074
internal_weight=0 50.2318 28.8559 16.0058 21.3759 27.2912 20.0703
internal_count=1089 679 416 239 263 410 298
is_linear=0
shrinkage=0.1


Tree=62
num_leaves=8
num_cat=0
split_feature=21 17 7 33 27 11 29
split_gain=1.02504 1.52284 2.02529 1.81944 2.15541 2.86317 1.15805
threshold=12.500000000000002 26.500000000000004 22.500000000000004 -2.4099999999999997 6.5000000000000009 1.0000000180025095e-35 12.175000000000001
decision_type=2 2 2 2 2 2 2
left_child=1 2 3 -1 -5 -6 -7
right_child=-2 -3 -4 4 5 6 -8
leaf_value=0.048240793581160575 -0.027226114127903378 -0.02744483492193095 0.06172000909680761 -0.037504957563751516 0.062088790495465909 0.019224002046435706 -0.032477387524900883
leaf_weight=7.9289825470186761 11.556379951769484 11.805860935943199 7.1637205397710195 13.006323127076028 8.0013011544942874 7.655351615278053 9.9806931796483678
leaf_count=115 115 203 116 179 132 73 156
internal_value=0 0.00507527 0.0122199 0.00460591 -0.00434718 0.0124744 -0.0100351
internal_weight=0 65.5422 53.7364 46.5727 38.6437 25.6373 17.636
internal_count=1089 974 771 655 540 361 229
is_linear=0
shrinkage=0.1


Tree=63
num_leaves=8
num_cat=0
split_feature=13 5 21 27 31 3 21
split_gain=1.03957 1.20806 1.50905 1.45703 2.80387 2.32395 2.35901
threshold=1.0000000180025095e-35 7.5000000000000009 12.500000000000002 10.500000000000002 10.100000000000003 10.500000000000002 7.5000000000000009
decision_type=2 2 2 2 2 2 2
left_child=1 2 3 4 -1 -6 -7
right_child=-2 -3 -4 -5 5 6 -8
leaf_value=0.033896983784337073 -0.034958833450840894 0.040437883399515658 -0.04179298566615644 0.045514343718120166 0.010154457964220029 0.0021297921113246909 -0.075907535686019878
leaf_weight=15.039156052749602 7.5668933636043212 8.0734262417536211 7.8038948648609212 7.7041897391900411 14.586402619723232 6.4289281854871687 9.7460840730927867
leaf_count=219 126 104 68 87 211 134 140
internal_value=0 0.00407548 -0.000712898 0.00527881 -0.00148928 -0.0187895 -0.0448908
internal_weight=0 69.3821 61.3087 53.5048 45.8006 30.7614 16.175
internal_count=1089 963 859 791 704 485 274
is_linear=0
shrinkage=0.1


Tree=64
num_leaves=8
num_cat=0
split_feature=22 3 32 20 9 32 21
split_gain=1.12486 2.14751 2.37422 2.40308 1.57061 3.05711 2.48459
threshold=5.5000000000000009 3.5000000000000004 0.40000000000000008 5.5000000000000009 4.5000000000000009 2.0000000000000004 7.5000000000000009
decision_type=2 2 2 2 2 2 2
left_child=1 -1 -3 -4 -2 6 -6
right_child=4 2 3 -5 5 -7 -8
leaf_value=0.028692731978841837 -0.024232605985288286 0.019049038285824865 -0.0023942407123170345 -0.06881765598923599 0.051657759907973347 0.082979472106007202 -0.021897773804967078
leaf_weight=10.376620300114153 8.3804887523874623 9.2003634136635828 9.305637757759543 13.133855720050631 7.3023952301591697 6.8473535738885394 12.373490602709351
leaf_count=76 96 140 167 168 144 134 164
internal_value=0 -0.0107846 -0.0237316 -0.0412719 0.0135052 0.0254291 0.0054012
internal_weight=0 42.0165 31.6399 22.4395 34.9037 26.5232 19.6759
internal_count=1089 551 475 335 538 442 308
is_linear=0
shrinkage=0.1


Tree=65
num_leaves=8
num_cat=0
split_feature=28 33 23 23 17 8 7
split_gain=1.14843 2.39692 1.97587 1.74238 2.61041 2.33021 0.84509
threshold=4.5000000000000009 0.55500000000000016 10.873015873015875 11.6625 18.500000000000004 25.000000000000004 3.5000000000000004
decision_type=2 2 2 2 2 2 2
left_child=1 2 -1 -2 -5 6 -6
right_child=3 -3 -4 4 5 -7 -8
leaf_value=-0.026525704008032808 -0.032493057273717089 -0.045007104348496023 0.041000650879005063 -0.025541249833187726 0.033031776702020642 0.068136362201172446 -0.013593610453201477
leaf_weight=7.9275418743491235 7.7873112801462403 14.121314994990824 9.557276832405476 9.5468890480697137 7.7178351627662796 12.047340082470326 7.8325647944584489
leaf_count=147 74 192 110 171 109 183 103
internal_value=0 -0.0143639 0.0103845 0.0105148 0.0195313 0.0351233 0.00954708
internal_weight=0 31.6061 17.4848 44.9319 37.1446 27.5977 15.5504
internal_count=1089 449 257 640 566 395 212
is_linear=0
shrinkage=0.1


Tree=66
num_leaves=8
num_cat=0
split_feature=28 33 23 4 17 31 32
split_gain=0.939102 1.94952 1.60405 1.48366 2.07012 1.50398 1.75287
threshold=4.5000000000000009 0.55500000000000016 10.873015873015875 1.0000000180025095e-35 25.500000000000004 10.950000000000001 0.55000000000000016
decision_type=2 2 2 2 2 2 2
left_child=1 2 -1 -2 5 -5 -7
right_child=3 -3 -4 4 -6 6 -8
leaf_value=-0.024065810954138456 0.050459065850905684 -0.040674113803319235 0.036904396493931055 0.040837600699211329 -0.048809776749915962 0.026057147622213506 -0.034828529817422522
leaf_weight=7.8673906947951826 7.4025800218805662 14.066118754213674 9.5563611672259849 11.609040048439057 6.7187273092567912 9.3045661207288521 9.614367370028047
leaf_count=147 65 192 110 189 58 165 163
internal_value=0 -0.0129816 0.00937436 0.00956945 0.00144286 0.0125027 -0.0048842
internal_weight=0 31.4899 17.4238 44.6493 37.2467 30.528 18.9189
internal_count=1089 449 257 640 575 517 328
is_linear=0
shrinkage=0.1


Tree=67
num_leaves=8
num_cat=0
split_feature=3 7 27 17 28 32 8
split_gain=0.954301 2.04078 1.36789 1.10228 2.10014 1.95711 1.93233
threshold=15.500000000000002 22.500000000000004 12.500000000000002 18.500000000000004 4.5000000000000009 1.0000000000000002 23.000000000000004
decision_type=2 2 2 2 2 2 2
left_child=1 2 3 -1 6 -6 -5
right_child=-2 -3 -4 4 5 -7 -8
leaf_value=-0.019218157607436049 -0.027891584397023789 0.052170728563903396 -0.042503818456604517 0.014660179255185701 0.0087025829911901113 0.07500396053145833 -0.053828504928618598
leaf_weight=14.530609474517403 10.404117968166245 7.9588883498217902 7.2376333284191778 10.891223809449004 10.324682504869999 7.8274918403476468 6.6255035193171343
leaf_count=195 113 138 67 149 164 137 126
internal_value=0 0.00471455 -0.0018613 0.00399843 0.0134563 0.0372927 -0.0112449
internal_weight=0 65.396 57.4371 50.1995 35.6689 18.1522 17.5167
internal_count=1089 976 838 771 576 301 275
is_linear=0
shrinkage=0.1


Tree=68
num_leaves=8
num_cat=0
split_feature=13 20 22 28 19 31 23
split_gain=0.946236 1.08382 1.79388 2.49414 1.17814 1.36146 2.19682
threshold=1.0000000180025095e-35 1.0000000180025095e-35 3.5000000000000004 2.5000000000000004 1.5000000000000002 10.950000000000001 12.205263157894739
decision_type=2 2 2 2 2 2 2
left_child=1 -1 3 -3 5 6 -4
right_child=-2 2 4 -5 -6 -7 -8
leaf_value=0.039955085037576631 -0.033731232623198895 -0.10455427391214596 -0.0050540514141241971 0.0072107994754687516 -0.02331962474565304 -0.00070886518590513648 0.06854618509420779
leaf_weight=7.437827192246913 7.3970262492075554 3.716669191606341 7.2337025580927756 4.3145553041249514 10.738753861282019 25.403103088028729 9.2300573866814357
leaf_count=35 126 192 77 31 92 376 160
internal_value=0 0.00392791 -0.000491246 -0.0445116 0.00622927 0.0138085 0.0362084
internal_weight=0 68.0747 60.6368 8.03122 52.6056 41.8669 16.4638
internal_count=1089 963 928 223 705 613 237
is_linear=0
shrinkage=0.1


Tree=69
num_leaves=8
num_cat=0
split_feature=5 1 29 23 17 8 21
split_gain=0.967615 1.45607 2.30178 1.52918 1.12776 0.939612 1.746
threshold=7.5000000000000009 1.5000000000000002 11.04166666666667 12.581666666666669 20.500000000000004 23.000000000000004 7.5000000000000009
decision_type=2 2 2 2 2 2 2
left_child=1 5 4 -4 -3 6 -1
right_child=-2 2 3 -5 -6 -7 -8
leaf_value=0.060565851391138625 0.031351344087820421 -0.02420208092223455 0.017761208208903648 -0.027212044883347421 -0.094265359884990907 -0.0098845291977331939 -0.0048754246524713857
leaf_weight=8.4702932429499977 8.8029958116821927 4.5085615236312133 16.527462476398799 13.935140241868792 4.6843598911073059 9.9760917965322715 7.8604663289152077
leaf_count=128 134 64 170 168 143 167 115
internal_value=0 -0.00394569 -0.0160468 -0.00281184 -0.0599036 0.0142958 0.0290671
internal_weight=0 65.9624 39.6555 30.4626 9.19292 26.3069 16.3308
internal_count=1089 955 545 338 207 410 243
is_linear=0
shrinkage=0.1


Tree=70
num_leaves=8
num_cat=0
split_feature=22 3 15 23 7 8 23
split_gain=0.832446 1.64009 1.68918 2.48108 1.98054 4.60778 1.40201
threshold=6.5000000000000009 3.5000000000000004 1.0000000180025095e-35 12.52777777777778 17.500000000000004 3.5000000000000004 12.643181818181821
decision_type=2 2 2 2 2 2 2
left_child=1 -1 4 -4 5 -3 -2
right_child=6 2 3 -5 -6 -7 -8
leaf_value=0.030072027207392084 0.048136199440153349 -0.037601944045349861 -0.065634166622334192 0.009461955204208769 -0.033801048668372462 0.062756513629452434 -0.010897686349860242
leaf_weight=10.662371221929787 8.526976012624802 7.837790579069412 11.471176134189593 7.1366210889536879 10.163258049055001 10.989526189630849 7.616364632267504
leaf_count=94 83 112 200 99 185 185 131
internal_value=0 -0.00537783 -0.0133188 -0.0368327 0.00177366 0.0209774 0.0202842
internal_weight=0 58.2607 47.5984 18.6078 28.9906 18.8273 16.1433
internal_count=1089 875 781 299 482 297 214
is_linear=0
shrinkage=0.1


Tree=71
num_leaves=8
num_cat=0
split_feature=5 1 29 22 32 27 9
split_gain=0.826535 1.18508 1.91566 2.0787 1.99209 0.967082 2.11585
threshold=7.5000000000000009 1.5000000000000002 11.267857142857144 4.5000000000000009 0.40000000000000008 6.5000000000000009 8.5000000000000018
decision_type=2 2 2 2 2 2 2
left_child=1 5 3 -3 -4 -1 -7
right_child=-2 2 4 -5 -6 6 -8
leaf_value=-0.010472541802025302 0.029060989351439234 -0.09283523549276515 -0.040331168361065539 -0.0072573016186009594 0.017366374285352686 2.1335770465050546e-05 0.076351298662936162
leaf_weight=10.54092077817768 8.743624296737833 5.5751710516633448 8.6813243138603884 5.7820781678892672 19.259924368467182 9.6292046573944372 5.8305017622187725
leaf_count=130 134 182 99 40 224 159 121
internal_value=0 -0.00367855 -0.0146364 -0.0492667 -0.000560208 0.0128836 0.0288086
internal_weight=0 65.2991 39.2985 11.3572 27.9412 26.0006 15.4597
internal_count=1089 955 545 222 323 410 280
is_linear=0
shrinkage=0.1


Tree=72
num_leaves=8
num_cat=0
split_feature=13 27 3 27 7 10 3
split_gain=0.793656 0.871619 1.14364 2.32575 1.40825 4.04693 6.13479
threshold=1.0000000180025095e-35 12.500000000000002 3.5000000000000004 10.500000000000002 2.5000000000000004 5.5000000000000009 14.500000000000002
decision_type=2 2 2 2 2 2 2
left_child=1 2 -1 4 -4 -6 -7
right_child=-2 -3 3 -5 5 6 -8
leaf_value=0.038548370933412422 -0.031236344706819959 -0.023959757487632932 0.021359631904331506 0.053828064351618736 -0.077063418861798044 0.04194604243849194 -0.083827871084715497
leaf_weight=10.277063548564909 7.2530630675610146 9.7794286930002254 11.532618112047201 7.2151497080922118 8.6163381009828317 13.43421633099206 5.451913504395633
leaf_count=87 126 82 204 77 131 305 77
internal_value=0 0.00360517 0.008374 0.00166908 -0.00797186 -0.0202714 0.00563852
internal_weight=0 66.3067 56.5273 46.2502 39.0351 27.5025 18.8861
internal_count=1089 963 881 794 717 513 382
is_linear=0
shrinkage=0.1


Tree=73
num_leaves=8
num_cat=0
split_feature=28 20 4 17 31 27 2
split_gain=0.736241 3.45165 1.30544 1.60277 3.06275 2.16145 2.33396
threshold=2.5000000000000004 1.0000000180025095e-35 1.0000000180025095e-35 20.500000000000004 10.100000000000003 9.5000000000000018 2.5000000000000004
decision_type=2 2 2 2 2 2 2
left_child=1 -1 -2 4 -4 6 -6
right_child=2 -3 3 -5 5 -7 -8
leaf_value=0.022866724169882249 0.042737899467062482 -0.080195240191398037 0.063098319519153998 -0.023575547855407081 0.0040406761647610876 0.037871705324362986 -0.073433939454965999
leaf_weight=7.6133679002523404 7.9141245102509847 5.6695137639762834 8.8031024644151312 19.460951284971088 9.8646126901730948 7.6754055991768828 6.4184688404202452
leaf_count=42 72 281 141 185 200 82 86
internal_value=0 -0.0211231 0.0048905 -0.000845127 0.0126571 -0.00587654 -0.0264983
internal_weight=0 13.2829 60.1367 52.2225 32.7616 23.9585 16.2831
internal_count=1089 323 766 694 509 368 286
is_linear=0
shrinkage=0.1


Tree=74
num_leaves=8
num_cat=0
split_feature=23 15 27 23 23 3 10
split_gain=0.786059 1.33934 2.01284 1.49867 2.10255 2.11156 1.03122
threshold=14.207142857142857 1.0000000180025095e-35 8.5000000000000018 12.919375000000002 12.152678571428572 10.500000000000002 8.5000000000000018
decision_type=2 2 2 2 2 2 2
left_child=1 3 6 4 5 -1 -3
right_child=-2 2 -4 -5 -6 -7 -8
leaf_value=0.029079256175150288 0.032628846411739555 0.031356651617081975 -0.049702193362145722 -0.021557418819436108 0.062719981940868086 -0.037655104394712369 -0.024452183404063178
leaf_weight=12.172667784616356 6.7714515479747197 7.3164537125267106 12.518333107465876 11.868840311188249 8.404205075465141 7.7664815199095747 6.0475493752164766
leaf_count=165 123 125 121 191 131 124 109
internal_value=0 -0.00314505 -0.0208886 0.00827546 0.020768 0.00308561 0.00610174
internal_weight=0 66.0945 25.8823 40.2122 28.3434 19.9391 13.364
internal_count=1089 966 355 611 420 289 234
is_linear=0
shrinkage=0.1


Tree=75
num_leaves=8
num_cat=0
split_feature=22 8 16 23 10 32 23
split_gain=0.766203 1.40858 2.40032 2.46258 3.2093 1.77158 1.21997
threshold=6.5000000000000009 1.5000000000000002 1.0000000180025095e-35 13.207142857142857 8.5000000000000018 0.55000000000000016 12.643181818181821
decision_type=2 2 2 2 2 2 2
left_child=1 -1 3 4 5 -3 -2
right_child=6 2 -4 -5 -6 -7 -8
leaf_value=-0.035941881724738049 0.046045358999912349 -0.028385753853438941 0.046182995555594714 0.040269272222473104 -0.061231462851246088 0.041280844427578407 -0.0092724613569399161
leaf_weight=11.844789194641633 8.3144885245710594 7.0008998974226433 9.9375480425078404 7.7167729742359361 12.389863537973723 7.6264465985586867 7.6593351038172832
leaf_count=171 83 95 177 118 188 126 131
internal_value=0 -0.00528305 0.00284623 -0.00955261 -0.023783 0.00793721 0.0195209
internal_weight=0 56.5163 44.6715 34.734 27.0172 14.6273 15.9738
internal_count=1089 875 704 527 409 221 214
is_linear=0
shrinkage=0.1


Tree=76
num_leaves=8
num_cat=0
split_feature=5 17 3 27 31 26 11
split_gain=0.756626 1.08757 1.75557 2.14532 3.29685 2.02823 1.54568
threshold=7.5000000000000009 28.500000000000004 9.5000000000000018 10.500000000000002 10.100000000000003 5.5000000000000009 1.0000000180025095e-35
decision_type=2 2 2 2 2 2 2
left_child=1 2 5 4 -4 -1 -6
right_child=-2 -3 3 -5 6 -7 -8
leaf_value=0.0040598135054450658 0.028094443805023163 -0.036014647485566868 0.064917415985197055 0.070689079630216409 0.019601088250258105 -0.056292448211793605 -0.040198376142326686
leaf_weight=14.688891630852597 8.5595083604566735 8.8898244895972294 6.6122065859381172 6.0656054510036475 6.9768321574665615 8.9680864510592055 11.360799576854333
leaf_count=162 134 145 127 76 127 124 194
internal_value=0 -0.00357568 0.00169895 0.017349 0.0043814 -0.018819 -0.0174468
internal_weight=0 63.5622 54.6724 31.0154 24.9498 23.657 18.3376
internal_count=1089 955 810 524 448 286 321
is_linear=0
shrinkage=0.1


Tree=77
num_leaves=8
num_cat=0
split_feature=28 8 8 20 3 29 28
split_gain=0.699462 3.37105 1.95984 2.36834 1.80495 1.53462 1.40552
threshold=5.5000000000000009 25.000000000000004 14.500000000000002 5.5000000000000009 6.5000000000000009 13.015625000000002 7.5000000000000009
decision_type=2 2 2 2 2 2 2
left_child=2 5 4 -4 -1 -2 -3
right_child=1 6 3 -5 -6 -7 -8
leaf_value=0.045304236604312841 -0.0398479312574875 0.090966568762192168 0.0088188670564133369 -0.062158829866387322 -0.010400002335514604 0.019883784725542464 0.018489288601731345
leaf_weight=9.4322060565464216 10.1328422902152 5.6447944482788426 8.2381296623498219 10.94941379886586 15.175817430717869 7.4736619745381168 5.0869174776598811
leaf_count=89 126 153 129 163 228 138 63
internal_value=0 0.0124345 -0.00772821 -0.0316847 0.0109513 -0.0144928 0.0566118
internal_weight=0 28.3382 43.7956 19.1875 24.608 17.6065 10.7317
internal_count=1089 480 609 292 317 264 216
is_linear=0
shrinkage=0.1


Tree=78
num_leaves=8
num_cat=0
split_feature=28 20 4 10 3 29 15
split_gain=0.720958 2.71055 1.13881 1.71398 1.92133 1.57762 1.66461
threshold=2.5000000000000004 1.0000000180025095e-35 1.0000000180025095e-35 5.5000000000000009 14.500000000000002 13.661904761904763 1.0000000180025095e-35
decision_type=2 2 2 2 2 2 2
left_child=1 -1 -2 -4 5 6 -5
right_child=2 -3 3 4 -6 -7 -8
leaf_value=0.017133095545506634 0.040642918245468646 -0.0767939608672073 -0.025388391997848682 0.063084469970387899 -0.034321420164247878 -0.019112244549492209 0.0050762854198986348
leaf_weight=7.4869102500379068 7.727525640744715 5.2106952014146373 18.009628519881517 11.719927163328979 6.8443355467170468 6.1800975762307635 8.5600192165002227
leaf_count=42 72 281 197 208 73 125 91
internal_value=0 -0.0214116 0.00485437 -0.000535134 0.0129045 0.0251203 0.0385996
internal_weight=0 12.6976 59.0415 51.314 33.3044 26.46 20.2799
internal_count=1089 323 766 694 497 424 299
is_linear=0
shrinkage=0.1


end of trees

feature_importances:
Curricular_units_2nd_sem_(approved)=70
Course=58
Curricular_units_1st_sem_(approved)=41
Curricular_units_2nd_sem_(grade)=39
Application_mode=28
Curricular_units_1st_sem_(evaluations)=28
Age_at_enrollment=26
Curricular_units_1st_sem_(grade)=25
Curricular_units_2nd_sem_(evaluations)=23
Father's_qualification=22
GDP=21
Debtor=18
Curricular_units_1st_sem_(enrolled)=17
Tuition_fees_up_to_date=15
Scholarship_holder=14
Unemployment_rate=14
Inflation_rate=14
Father's_occupation=13
Gender=13
Curricular_units_2nd_sem_(enrolled)=13
Mother's_qualification=11
Application_order=9
Daytime/evening_attendance=5
Mother's_occupation=5
Previous_qualification=4
Curricular_units_1st_sem_(credited)=3
Displaced=2
Curricular_units_2nd_sem_(credited)=1

parameters:
[boosting: gbdt]
[objective: binary]
[metric: binary_logloss]
[tree_learner: serial]
[device_type: cpu]
[data_sample_strategy: bagging]
[data: ]
[valid: ]
[num_iterations: 1000]
[learning_rate: 0.1]
[num_leaves: 8]
[num_threads: 0]
[seed: 0]
[deterministic: 0]
[force_col_wise: 0]
[force_row_wise: 0]
[histogram_pool_size: -1]
[max_depth: -1]
[min_data_in_leaf: 100]
[min_sum_hessian_in_leaf: 0.001]
[bagging_fraction: 1]
[pos_bagging_fraction: 1]
[neg_bagging_fraction: 1]
[bagging_freq: 0]
[bagging_seed: 3]
[feature_fraction: 1]
[feature_fraction_bynode: 1]
[feature_fraction_seed: 2]
[extra_trees: 0]
[extra_seed: 6]
[early_stopping_round: 50]
[first_metric_only: 0]
[max_delta_step: 0]
[lambda_l1: 0]
[lambda_l2: 0]
[linear_lambda: 0]
[min_gain_to_split: 0]
[drop_rate: 0.1]
[max_drop: 50]
[skip_drop: 0.5]
[xgboost_dart_mode: 0]
[uniform_drop: 0]
[drop_seed: 4]
[top_rate: 0.2]
[other_rate: 0.1]
[min_data_per_group: 100]
[max_cat_threshold: 32]
[cat_l2: 10]
[cat_smooth: 10]
[max_cat_to_onehot: 4]
[top_k: 20]
[monotone_constraints: ]
[monotone_constraints_method: basic]
[monotone_penalty: 0]
[feature_contri: ]
[forcedsplits_filename: ]
[refit_decay_rate: 0.9]
[cegb_tradeoff: 1]
[cegb_penalty_split: 0]
[cegb_penalty_feature_lazy: ]
[cegb_penalty_feature_coupled: ]
[path_smooth: 0]
[interaction_constraints: ]
[verbosity: -1]
[saved_feature_importance_type: 0]
[use_quantized_grad: 0]
[num_grad_quant_bins: 4]
[quant_train_renew_leaf: 0]
[stochastic_rounding: 1]
[linear_tree: 0]
[max_bin: 127]
[max_bin_by_feature: ]
[min_data_in_bin: 3]
[bin_construct_sample_cnt: 200000]
[data_random_seed: 1]
[is_enable_sparse: 1]
[enable_bundle: 1]
[use_missing: 1]
[zero_as_missing: 0]
[feature_pre_filter: 1]
[pre_partition: 0]
[two_round: 0]
[header: 0]
[label_column: ]
[weight_column: ]
[group_column: ]
[ignore_column: ]
[categorical_feature: ]
[forcedbins_filename: ]
[precise_float_parser: 0]
[parser_config_file: ]
[objective_seed: 5]
[num_class: 1]
[is_unbalance: 0]
[scale_pos_weight: 1]
[sigmoid: 1]
[boost_from_average: 1]
[reg_sqrt: 0]
[alpha: 0.9]
[fair_c: 1]
[poisson_max_delta_step: 0.7]
[tweedie_variance_power: 1.5]
[lambdarank_truncation_level: 30]
[lambdarank_norm: 1]
[label_gain: ]
[lambdarank_position_bias_regularization: 0]
[eval_at: ]
[multi_error_top_k: 1]
[auc_mu_weights: ]
[num_machines: 1]
[local_listen_port: 12400]
[time_out: 120]
[machine_list_filename: ]
[machines: ]
[gpu_platform_id: -1]
[gpu_device_id: -1]
[gpu_use_dp: 0]
[num_gpu: 1]

end of parameters

pandas_categorical:[]
